my_model/dense/kernel:0
(784, 128)
[[-1.00074780e+00 -4.90834862e-01  2.54055858e-01 -7.23394811e-01
   3.44664693e-01  5.78411259e-02  1.41195104e-01 -4.60770577e-01
   3.99516404e-01  9.72326398e-02 -3.28735679e-01 -6.28093481e-02
  -1.48958564e+00  1.92459449e-01  2.27231205e-01 -8.63820016e-02
  -2.29662806e-01  1.62117049e-01  3.98750938e-02 -3.37741226e-01
   1.79876551e-01  1.28020957e-01  1.08033895e-01 -4.57755864e-01
  -8.87969553e-01 -5.95576353e-02 -5.04412353e-02  2.76826501e-01
   2.36826539e-01 -5.41049577e-02 -4.32703108e-01 -2.22707748e-01
   3.89917880e-01 -1.91423193e-01  6.50238454e-01 -7.34093964e-01
  -1.11997938e+00 -1.43168733e-01  6.76089406e-01 -1.46919835e+00
  -4.53609496e-01  3.95488627e-02 -1.00767088e+00  7.58654252e-02
   4.87657711e-02 -3.63839298e-01 -8.00294399e-01  2.77433693e-01
   1.16460048e-01 -6.52883291e-01 -2.37710789e-01 -5.52148283e-01
  -2.60634184e-01 -5.72389841e-01 -1.57229394e-01  5.27712181e-02
  -5.73808908e-01  1.65668473e-01 -3.95780563e-01 -1.12316012e-01
  -2.50981003e-01 -1.52377546e-01 -1.86246142e-01  1.82945967e-01
  -2.08534170e-02 -5.78496829e-02 -5.80422342e-01 -3.72747183e-02
   4.31437790e-01 -7.29942918e-01 -7.21422076e-01 -4.25933033e-01
   2.60046750e-01 -6.79248571e-01 -4.62634802e-01 -1.21659994e-01
  -5.93293250e-01 -3.37029934e-01 -5.57178557e-01  1.04013868e-01
  -4.09137219e-01 -7.00114146e-02 -1.34570152e-01 -1.03924334e+00
  -3.10889482e-01 -1.24037035e-01 -2.19935834e-01  1.39339581e-01
  -5.22834122e-01 -7.31947571e-02  9.14036557e-02 -8.00054371e-02
   5.72857022e-01  9.75060984e-02 -1.22096136e-01  5.57077169e-01
   1.57481581e-02  4.01727855e-01 -4.54535991e-01  4.43297833e-01
  -6.59916341e-01  1.16248488e-01 -7.04586029e-01  3.39087903e-01
   7.66647875e-01 -7.09195554e-01 -7.04019144e-02 -3.19516152e-01
   1.25132293e-01  1.87206358e-01  2.82875568e-01 -5.16591258e-02
  -3.02422523e-01 -3.65182430e-01 -1.04739296e+00 -2.91947454e-01
  -4.67833757e-01  3.31045240e-01  1.93408459e-01  1.52521878e-01
  -7.85145819e-01 -2.04964232e+00 -3.95467103e-01 -3.05066351e-02
   2.08740741e-01 -7.70936310e-02  3.66443276e-01  4.38244715e-02]
 [-6.73593879e-01 -1.84749380e-01  1.96471184e-01 -5.74851811e-01
   2.86020368e-01  7.44608715e-02  1.10521540e-01 -1.78278401e-01
   1.39965639e-01  6.51841536e-02 -1.27816230e-01 -5.93178086e-02
  -1.17357492e+00  2.35985219e-01  2.13941351e-01 -7.27386773e-02
  -2.57381856e-01  2.56917566e-01  1.44781740e-02 -3.06806743e-01
   1.59659535e-01  2.63244659e-01  2.04728886e-01 -2.56386578e-01
  -7.57211626e-01 -4.12797779e-02  4.87582944e-02  1.77332222e-01
   1.58724651e-01 -4.14978154e-03 -5.94806433e-01 -2.07630187e-01
   2.59361923e-01 -2.06700087e-01  3.50699455e-01 -9.56753254e-01
  -9.63053584e-01 -3.25042307e-01  6.58704996e-01 -1.25688672e+00
  -3.50024343e-01 -2.01464500e-02 -7.01686502e-01  1.54641131e-03
   1.34833008e-02 -3.70749027e-01 -8.23790431e-01  2.81416863e-01
   9.88075733e-02 -3.57617736e-01 -7.74160624e-02 -5.79568207e-01
  -1.75570115e-01 -3.96090478e-01 -1.32297352e-01 -8.77145082e-02
  -4.35160965e-01  2.12305039e-01 -3.66895288e-01 -7.58553296e-02
  -2.42438957e-01 -1.70420453e-01 -1.76154107e-01  1.27985179e-01
   8.64454657e-02 -1.89229786e-01 -1.64398268e-01 -1.45490006e-01
   1.87619820e-01 -5.43427885e-01 -6.09149158e-01 -5.08869529e-01
   2.11403370e-01 -6.13914192e-01 -3.57024461e-01 -1.49772003e-01
  -4.92435366e-01 -5.43730974e-01 -3.92508835e-01  1.07472792e-01
  -3.05500031e-01  8.18639845e-02 -1.05073020e-01 -1.36301160e+00
  -2.67263740e-01 -1.05008282e-01 -6.41869381e-02  1.33670121e-01
  -2.41102874e-01 -8.34905133e-02  2.15179190e-01  3.68055850e-02
   5.26889861e-01  7.47559369e-02 -6.91214427e-02  3.40966284e-01
  -1.67980686e-01  2.67949134e-01 -4.83512074e-01  1.51458383e-01
  -4.24564838e-01 -5.90597503e-02 -4.12571430e-01  1.88628897e-01
   5.41111767e-01 -7.40278244e-01 -5.78948222e-02 -1.22992434e-01
   1.53347701e-01  9.59924385e-02 -1.21513205e-02  1.55812632e-02
  -2.92931229e-01 -3.90172601e-01 -9.12496865e-01 -4.85110700e-01
  -4.11603063e-01  3.85973394e-01  2.11583599e-01  4.41056825e-02
  -4.70769525e-01 -1.81881714e+00 -3.06523830e-01  9.26443338e-02
   5.24378382e-02 -8.13851729e-02  5.53372502e-01  6.60806224e-02]
 [-4.90103662e-01 -8.89320578e-03  1.64549276e-01 -3.02965850e-01
   1.65867090e-01  1.21551260e-01  5.19553088e-02  3.85182165e-02
   7.45988637e-02  4.89318222e-02  4.93473560e-03 -1.75937578e-01
  -1.07838726e+00  2.38639310e-01  1.27452388e-01 -1.19583964e-01
  -3.19157332e-01  1.55815914e-01  2.05473348e-01 -3.55445594e-01
   5.62568493e-02  2.93886483e-01  1.91517040e-01 -1.38891086e-01
  -4.86074209e-01 -1.94366276e-01  2.08656155e-02  1.05715148e-01
   1.68732367e-02  1.28136754e-01 -7.86356926e-01 -1.50068924e-01
   2.11522654e-01 -1.71017587e-01  3.09251189e-01 -9.70032811e-01
  -9.62872267e-01 -3.45377296e-01  5.99628389e-01 -1.06127203e+00
  -3.41183335e-01  3.02716112e-03 -4.20982540e-01  7.72555694e-02
   2.33952403e-02 -2.61714935e-01 -9.94918168e-01  2.14377940e-01
   1.41853034e-01 -3.06222767e-01 -1.19683385e-01 -4.59961236e-01
  -1.97051913e-01 -3.07147354e-01 -2.65416205e-01 -3.23057562e-01
  -1.83872148e-01  1.42045125e-01 -3.08726668e-01  7.76237762e-03
  -2.08813250e-01 -3.00678220e-02 -1.71405375e-01  9.03439894e-02
   1.14352427e-01 -2.65067428e-01  1.45083755e-01 -2.90731013e-01
   1.13290295e-01 -2.79693365e-01 -4.19100404e-01 -3.91512007e-01
   1.60696760e-01 -6.48071587e-01 -2.22627565e-01 -1.38685359e-02
  -3.05006474e-01 -6.06314898e-01 -2.54898041e-01  1.33022308e-01
  -2.09557489e-01 -2.68498957e-02 -1.35430962e-01 -1.56748950e+00
  -1.59760132e-01 -6.46561012e-02 -1.14887655e-02  1.88945815e-01
  -1.86001852e-01 -7.55835548e-02  1.42028674e-01  2.37008065e-01
   3.35213006e-01 -5.44272847e-02 -6.48987386e-03  3.28316838e-01
  -4.01462018e-01  1.95927486e-01 -3.91328275e-01  2.65971720e-01
  -3.60194445e-01  1.15682319e-01 -9.96385068e-02  1.16042100e-01
   1.62407786e-01 -6.48184001e-01  2.51909364e-02 -1.04156546e-01
   6.09603301e-02  9.20215771e-02 -3.26001883e-01 -4.52878252e-02
  -1.68553442e-01 -3.20628345e-01 -7.46629834e-01 -5.60699940e-01
  -2.33453274e-01  3.51719111e-01  1.75647900e-01 -2.34285947e-02
  -1.96814954e-01 -1.48131096e+00 -1.88613668e-01  1.10948868e-01
   7.28766173e-02 -4.20161448e-02  3.78726155e-01 -8.28131810e-02]
 [-5.14231026e-01  2.23092008e-02  1.24049760e-01 -2.68562734e-01
   1.00361034e-01 -6.56260476e-02 -6.71130652e-03  3.81592482e-01
   3.97653282e-02  1.71444044e-01  4.43291925e-02 -1.40401185e-01
  -1.04201365e+00  2.72489309e-01  1.39356777e-01 -9.42504853e-02
  -4.60241556e-01  2.12804005e-01  1.33458391e-01 -2.98289478e-01
   2.70280149e-02  2.60461897e-01  1.28860623e-01 -2.44695067e-01
  -5.17246604e-01 -1.03197187e-01  1.11331135e-01  1.27588600e-01
  -7.33503699e-03  8.43793079e-02 -7.96575487e-01  3.10036633e-02
   4.38497253e-02 -1.32462576e-01  1.83823735e-01 -9.76868629e-01
  -1.05745280e+00 -4.03960735e-01  4.66869146e-01 -9.71742570e-01
  -2.57748038e-01 -4.88661230e-02 -1.69142336e-01 -1.49536626e-02
   2.47886032e-03 -2.91036993e-01 -9.76217568e-01  2.80364364e-01
   1.32460281e-01 -2.87043393e-01  3.88253964e-02 -4.38870937e-01
  -7.88830221e-02 -8.60965773e-02 -2.65126228e-01 -3.21788639e-01
  -9.18662772e-02  1.49612427e-01 -2.12385833e-01 -2.98871510e-02
  -1.84789374e-01  9.24063250e-02 -2.08292618e-01  2.10603386e-01
   3.12492326e-02 -4.15404886e-01  3.19897592e-01 -1.66952178e-01
  -1.04999533e-02 -4.35653865e-01 -4.19662356e-01 -3.52421254e-01
   4.46483903e-02 -6.50926352e-01 -2.31143773e-01 -1.79742575e-01
  -2.03954563e-01 -8.53002727e-01 -2.97303170e-01  2.40766183e-01
  -1.40439257e-01  2.50909664e-02 -1.91000238e-01 -1.61152601e+00
  -5.43085337e-02 -8.59072711e-03  2.24699765e-01  2.13275209e-01
  -8.26526582e-02  4.80958633e-02  1.53516963e-01  3.33436430e-01
   3.65724564e-01  2.44330335e-03 -1.17892750e-01  2.57388562e-01
  -3.91142815e-01  1.06241412e-01 -4.29545552e-01  8.94703940e-02
  -1.51126891e-01  1.34243757e-01  1.30781546e-01  1.54322997e-01
   2.85441354e-02 -6.06712341e-01  3.92221287e-03 -1.37358993e-01
  -5.75682111e-02 -5.35758846e-02 -6.21628642e-01 -6.40215352e-02
  -3.08939517e-01 -9.64046195e-02 -8.00770044e-01 -5.42873502e-01
  -3.47216666e-01  2.74481297e-01  1.62110955e-01 -8.91081989e-02
   5.84736764e-02 -1.04111516e+00 -1.35474518e-01  1.27166864e-02
   1.35406097e-02 -4.76929359e-02  2.18650907e-01 -7.46063143e-02]
 [-5.07697284e-01  7.28126466e-02  1.52853653e-01 -3.10308576e-01
   1.31211981e-01 -5.20236865e-02 -5.73002771e-02  4.97298092e-01
   1.94005519e-01  1.04724407e-01  3.54861580e-02 -1.93692356e-01
  -1.08653724e+00  1.71198666e-01  5.90512455e-02 -8.49080458e-02
  -4.97960538e-01  3.34183365e-01  2.69236881e-02 -2.70606667e-01
  -9.49721131e-03  3.38746399e-01  7.90174752e-02 -7.89718851e-02
  -4.84787643e-01 -7.88734332e-02  5.25760911e-02  2.05579288e-02
  -7.27067292e-02 -3.37145664e-02 -8.63486290e-01  1.13567442e-01
  -3.27052809e-02 -1.06542051e-01  1.86559588e-01 -9.19000387e-01
  -1.11118960e+00 -3.60369354e-01  4.32108402e-01 -7.34004557e-01
  -3.37754875e-01  9.11249146e-02 -2.43355036e-02 -3.48293930e-02
  -2.59699672e-03 -2.41159350e-01 -1.07233131e+00  1.25385836e-01
   1.65742964e-01 -2.34905943e-01  3.63539532e-02 -3.55852991e-01
  -2.01292131e-02  1.71661586e-01 -4.30344254e-01 -3.37139279e-01
  -1.64485201e-01  1.81654748e-02 -2.29364976e-01 -8.02045166e-02
  -8.50558504e-02  8.11997503e-02 -2.74300039e-01  2.52725959e-01
  -3.43369413e-03 -4.00077224e-01  4.18965369e-01 -3.37103933e-01
   2.77637187e-02 -4.84599710e-01 -3.87226373e-01 -4.52358365e-01
  -1.25686124e-01 -5.69085538e-01 -9.39534307e-02 -8.65623653e-02
  -3.37555557e-01 -1.10543728e+00 -3.99594724e-01  1.56426683e-01
  -1.56478092e-01  4.49516624e-02 -1.62212446e-01 -1.62126029e+00
  -1.68046340e-01  1.27623513e-01  1.21385947e-01  1.51025772e-01
  -3.19817327e-02  5.01985252e-02  1.71593398e-01  4.37242806e-01
   2.44037747e-01  1.98955219e-02 -5.35505861e-02  3.57289135e-01
  -4.08504128e-01  7.27017224e-02 -3.71217817e-01  1.54200569e-01
   7.55272508e-02  1.80418521e-01 -4.18815054e-02  1.38771504e-01
  -6.26193732e-02 -4.64115620e-01 -6.87416196e-02 -7.18466192e-02
   5.23729585e-02 -2.22746711e-02 -7.66407728e-01 -5.10343239e-02
  -2.51608729e-01 -1.29675165e-01 -6.97783291e-01 -5.90510845e-01
  -2.95789927e-01  2.63644397e-01  2.63293982e-01 -4.98191863e-02
   3.11576575e-01 -3.98249477e-01 -2.46105030e-01  6.57562986e-02
  -1.81520898e-02 -7.54100159e-02 -5.67705408e-02 -6.97912872e-02]
 [-5.51068604e-01  6.23985715e-02  1.04600638e-01 -2.26071060e-01
   1.91292331e-01 -2.45469157e-02  4.69502024e-02  4.21916246e-01
   2.42658421e-01  1.38850003e-01  1.90671757e-01 -1.63537025e-01
  -1.18419123e+00  1.88039452e-01  1.27814576e-01 -4.07121889e-02
  -7.66257524e-01  3.36747438e-01  4.91279699e-02 -2.69437909e-01
   6.23495094e-02  3.48688632e-01  1.56323180e-01 -1.63946643e-01
  -4.34283048e-01 -1.22179247e-01  1.81034990e-02  5.34884781e-02
  -1.10010318e-02  5.81164695e-02 -9.85361874e-01  1.96471989e-01
  -2.81287711e-02 -1.85469855e-02  1.66083097e-01 -8.99547756e-01
  -9.96967793e-01 -1.74915195e-01  4.05074537e-01 -6.26267254e-01
  -2.60186642e-01  1.16304876e-02  2.90265330e-03 -5.03917262e-02
  -1.06295869e-02 -2.01594099e-01 -9.53416169e-01  1.67487085e-01
   2.03968033e-01 -2.19344452e-01  7.21012577e-02 -3.50412816e-01
   1.15886834e-02  2.80435622e-01 -5.81115901e-01 -3.09039772e-01
  -2.13087827e-01  6.42223135e-02 -2.60856330e-01 -1.02238990e-01
  -1.46860957e-01  8.86048898e-02 -1.44306049e-01  2.61900961e-01
   5.11737429e-02 -1.79295883e-01  5.50483823e-01 -2.38357827e-01
  -2.29811277e-02 -4.53150183e-01 -4.48976398e-01 -3.77525121e-01
  -9.10997577e-03 -3.95720124e-01 -1.76479518e-01 -1.90480620e-01
  -3.60675603e-01 -1.20910180e+00 -3.56172919e-01  1.93041816e-01
  -9.64182690e-02 -5.85766882e-02 -9.00312513e-02 -1.71554220e+00
  -1.72727391e-01  1.37610182e-01 -5.11051938e-02  2.96067875e-02
  -8.39600340e-02  7.36956820e-02  9.32995677e-02  4.81178194e-01
   3.18731934e-01 -9.44404528e-02 -8.77060816e-02  3.19407821e-01
  -2.50849754e-01  5.23955971e-02 -5.10112703e-01  8.17725286e-02
   2.48109564e-01  1.68855965e-01 -8.94413069e-02  2.16578260e-01
  -2.69932359e-01 -4.85030383e-01 -2.81904545e-02 -1.90806136e-01
  -2.08575558e-02  7.09697381e-02 -8.42869997e-01 -8.16294737e-03
  -2.96339899e-01 -1.13243805e-02 -6.59493208e-01 -5.09315848e-01
  -1.93328723e-01  3.93999875e-01  2.88508087e-01 -6.51413295e-03
   3.94069970e-01 -7.90752843e-02 -2.32279152e-01  2.17027321e-01
  -2.20882054e-02 -1.05955027e-01 -1.27717167e-01 -3.46488059e-02]
 [-6.69409156e-01  5.36808744e-02  7.92023689e-02 -2.01890603e-01
   2.01502666e-01  3.09991874e-02 -4.06608731e-02  3.19035590e-01
   3.03556651e-01  1.25472143e-01 -1.31897989e-03 -4.97323312e-02
  -1.03156674e+00  1.31577298e-01  6.18191920e-02 -4.34275307e-02
  -7.88446188e-01  2.60297090e-01 -5.45384549e-02 -3.15652817e-01
   6.36370257e-02  2.91110843e-01  1.72655165e-01 -2.07914010e-01
  -3.45104277e-01 -2.85631996e-02  8.15617144e-02  7.59962425e-02
  -1.29553035e-01 -2.76595037e-02 -9.85188246e-01  1.44509554e-01
  -6.19928278e-02 -2.08431371e-02  1.91937268e-01 -7.20203280e-01
  -1.13562965e+00 -1.86469287e-01  3.13154995e-01 -2.70339549e-01
  -3.14485013e-01  1.05915284e-02  1.34110510e-01 -4.07727323e-02
  -3.39338928e-03 -3.35122734e-01 -1.07031858e+00  9.77982432e-02
   2.49720439e-01 -4.16457027e-01  2.58004338e-01 -1.94430709e-01
   1.71153888e-01  2.62320697e-01 -6.29766881e-01 -2.64800191e-01
  -1.82879418e-01  5.96359968e-02 -1.71290860e-01 -6.01694807e-02
  -1.47229686e-01 -2.70634494e-03 -1.01136073e-01  2.86858708e-01
   7.99829438e-02 -2.13806391e-01  6.23563528e-01 -1.44977212e-01
  -1.63934574e-01 -4.15287614e-01 -4.18238699e-01 -3.31430465e-01
  -1.13368645e-01 -3.85387689e-01 -1.67209312e-01 -2.53126062e-02
  -3.67213905e-01 -1.27605450e+00 -3.44993740e-01  7.25017339e-02
  -2.18036398e-02 -5.97310625e-02 -1.10451251e-01 -1.67385542e+00
  -2.51477119e-02  1.19513586e-01 -2.50089206e-02  5.39341383e-03
   9.04519670e-03 -2.64799763e-02  5.98056940e-04  4.81198817e-01
   2.63988763e-01 -1.08082451e-01 -1.15650527e-01  3.77677381e-01
  -2.81795174e-01  1.29693970e-01 -4.02009189e-01  1.59494445e-01
   2.33913079e-01  1.14804246e-01 -2.81284571e-01  2.54515201e-01
  -2.01267377e-01 -3.43367279e-01 -5.85054085e-02 -6.20278493e-02
  -4.61479425e-02 -1.22000098e-01 -9.88220274e-01 -5.26617318e-02
  -3.32143873e-01  7.55948648e-02 -7.18676507e-01 -3.43644500e-01
  -2.04529226e-01  4.06468153e-01  2.16188282e-01  4.14595054e-03
   3.21584851e-01  1.92213252e-01 -1.84136167e-01  2.29376107e-01
  -3.80994342e-02 -8.43078420e-02 -3.41958225e-01  4.96157259e-02]
 [-8.79523635e-01  6.89785406e-02  2.28811696e-01 -3.34627509e-01
   1.97022840e-01 -3.61876749e-02  2.46264264e-02  3.14768314e-01
   1.97981611e-01  1.28573939e-01  8.52024779e-02 -9.27383229e-02
  -1.20589697e+00 -4.90162298e-02  3.56009640e-02 -1.03236839e-01
  -9.08215642e-01  2.19723076e-01 -1.47045348e-02 -2.30213314e-01
   5.30172810e-02  2.55718321e-01  1.17339559e-01 -7.51240999e-02
  -2.05169067e-01 -1.85931101e-02  1.30288586e-01  1.30644053e-01
  -1.63921416e-01  3.86086814e-02 -1.07216036e+00  3.17860305e-01
  -8.60846788e-02  1.97659563e-02  1.49826363e-01 -4.90101993e-01
  -1.05010498e+00 -8.57672691e-02  1.76452041e-01 -1.73582450e-01
  -3.96507502e-01  1.06506944e-01  7.88288265e-02 -2.18099337e-02
  -8.23069811e-02 -2.53876209e-01 -1.15034032e+00  6.48185564e-03
   6.73075393e-02 -4.86685932e-01  1.22199960e-01 -2.18495682e-01
   2.68389136e-01  1.73943192e-01 -6.80220366e-01 -1.13810629e-01
  -3.08729082e-01  3.57783809e-02 -2.07308546e-01  9.35934298e-03
  -2.71728355e-02  5.27956150e-02 -3.06507051e-02  3.81232917e-01
   1.14517882e-01 -4.17991221e-01  8.16472232e-01 -1.75113857e-01
  -1.93126902e-01 -5.22434533e-01 -2.18966737e-01 -1.74888507e-01
  -8.62095132e-02 -5.20717025e-01 -2.34123424e-01 -1.04774244e-01
  -3.09910744e-01 -8.67436349e-01 -3.03257257e-01  2.25076839e-01
   4.25311998e-02  4.26492840e-03 -4.47691604e-02 -1.33247066e+00
  -3.71247493e-02  2.80521154e-01  1.40939787e-01 -1.27763851e-02
  -2.68008187e-02  1.23680513e-02  4.52489145e-02  4.10265863e-01
   2.09401518e-01 -1.43702775e-01 -8.05151016e-02  4.27346766e-01
  -3.72740865e-01  1.46164149e-01 -3.20826918e-01  1.68997228e-01
   1.95924163e-01  2.24541768e-01 -4.10151720e-01  2.11189389e-01
  -1.69232503e-01 -2.94376612e-01 -7.36311227e-02 -7.97796920e-02
   7.12739527e-02 -7.31638148e-02 -1.18839276e+00 -3.53111490e-03
  -3.08009505e-01  7.24127218e-02 -5.08279979e-01 -3.36123466e-01
  -6.07882626e-02  3.55647117e-01  2.63193324e-02  1.06170326e-01
   3.26002330e-01  2.11191878e-01 -8.48010480e-02  5.37861288e-02
   2.63516344e-02  8.05939883e-02 -2.26942465e-01  1.03754647e-01]
 [-9.08792794e-01  1.75671563e-01  3.06294531e-01 -3.52315813e-01
   1.22781128e-01  1.81095209e-02 -8.40188563e-02  1.61691248e-01
   2.58049011e-01  1.62158441e-02 -3.74716446e-02 -9.89484936e-02
  -1.27804685e+00 -1.92750871e-01 -1.84986237e-02 -2.02571481e-01
  -7.49191523e-01  1.89677730e-01 -2.45213439e-03 -2.12192014e-01
  -7.41205513e-02  3.15483004e-01  1.59332022e-01 -7.53891766e-02
  -1.76219612e-01  3.50939296e-02  5.54380342e-02  1.56974658e-01
  -3.61724086e-02  6.82912990e-02 -1.23426056e+00  2.92105407e-01
  -1.32161424e-01 -6.23166226e-02  3.83286551e-02 -4.23054844e-01
  -9.67531681e-01 -1.24245338e-01  2.09809840e-01  4.73849885e-02
  -4.29885089e-01  4.69686724e-02  5.77756464e-02  3.34504582e-02
  -2.61578918e-03 -3.47783387e-01 -1.18183017e+00  3.19691971e-02
   4.66608964e-02 -5.78068733e-01  1.37264505e-01 -2.27813572e-01
   2.02258229e-01  1.01104133e-01 -7.34944761e-01 -2.13490739e-01
  -2.37535939e-01 -7.47168884e-02 -2.44843468e-01  1.36171449e-02
  -4.94880825e-02  6.73939362e-02 -1.78614601e-01  2.87119567e-01
   5.44273183e-02 -4.21891361e-01  9.43927109e-01 -2.62786716e-01
  -3.42966110e-01 -4.61145699e-01 -1.11476280e-01 -1.82055369e-01
  -1.03092864e-01 -5.49559951e-01 -1.90105200e-01 -1.68935210e-02
  -2.78316617e-01 -3.82455856e-01 -2.90600717e-01  2.44783372e-01
  -8.18671584e-02  7.59203807e-02  2.74980976e-03 -7.98309803e-01
  -7.23162219e-02  3.62208605e-01  1.43057898e-01 -3.48465843e-03
  -5.04240990e-02 -3.67249995e-02  2.86463648e-02  2.41095737e-01
   1.95751280e-01 -2.42207929e-01 -2.44778972e-02  2.40882337e-01
  -2.65574902e-01  1.51099116e-01 -2.49414891e-01  1.51107490e-01
   2.41423920e-01  7.86504894e-02 -5.19174099e-01  1.42892942e-01
  -1.31381154e-01 -1.39301345e-01 -5.07377870e-02 -5.56551181e-02
   7.07651973e-02 -2.72089355e-02 -1.27485573e+00 -4.52117267e-04
  -3.56717587e-01  5.09231277e-02 -2.75461286e-01 -2.99128175e-01
  -6.77561611e-02  2.37887576e-01 -2.58453824e-02  1.74527559e-02
   3.69266093e-01  3.74832869e-01 -1.18975535e-01  1.96888030e-01
  -4.56732586e-02  4.19856906e-02 -2.32281759e-01  3.17641020e-01]
 [-9.50137794e-01  6.86691925e-02  3.02238941e-01 -4.25505221e-01
   1.27480224e-01  3.49075682e-02 -1.10668451e-01  2.29114726e-01
   3.08648139e-01  7.25111291e-02  9.06152092e-03 -8.64266902e-02
  -1.29320192e+00 -2.58792818e-01 -1.34772956e-01 -1.65539652e-01
  -6.21891797e-01  1.78884253e-01 -1.37495294e-01 -1.32287145e-01
   1.70378815e-02  1.42813772e-01  1.19941540e-01  1.60869136e-02
  -7.36801773e-02 -9.04472023e-02 -1.23799924e-04  1.58088520e-01
  -8.57292786e-02  9.85769928e-02 -1.33597589e+00  2.60417938e-01
  -1.33434743e-01  1.03706252e-02  9.00852531e-02 -3.07706058e-01
  -8.68569672e-01 -2.39219889e-01  1.37315571e-01  2.91040745e-02
  -4.70225424e-01  1.75582021e-02  1.32827342e-01 -5.55649176e-02
   5.92980646e-02 -3.66011590e-01 -9.02974010e-01  7.12163970e-02
   1.35107055e-01 -5.61192155e-01  9.21589509e-02 -3.07264775e-01
   2.16631055e-01  1.33207932e-01 -7.41934597e-01 -1.59744918e-01
  -3.93447995e-01 -4.16746363e-03 -2.23605707e-01 -6.40221089e-02
   1.31180631e-02  6.99987784e-02 -1.18899107e-01  2.53810614e-01
   5.72912209e-03 -4.97764349e-01  9.69289839e-01 -2.62178898e-01
  -2.00145528e-01 -3.99605274e-01 -1.44656673e-01 -1.56986728e-01
  -1.85258128e-02 -4.75880861e-01 -4.10049409e-01 -6.25445247e-02
  -3.28620344e-01 -1.25656515e-01 -1.78688571e-01  1.57033414e-01
  -6.35195449e-02 -5.40404655e-02 -1.27237439e-02 -3.04823607e-01
  -9.09793451e-02  3.05717081e-01  4.86756638e-02 -3.62124131e-03
  -4.63944254e-03  1.46918865e-02 -4.54459153e-02  1.19470879e-01
   2.06776351e-01 -2.12884083e-01  3.89007479e-02  3.00281733e-01
  -2.93946326e-01  1.54725060e-01 -2.51928091e-01  2.04830959e-01
   1.86764106e-01  1.42351225e-01 -7.28427649e-01  1.08651355e-01
  -1.82909574e-02 -1.31567731e-01  3.25563387e-03 -1.57107040e-01
   1.46501675e-01 -4.37018350e-02 -1.44565260e+00  9.99459103e-02
  -3.22494358e-01  1.41044661e-01 -8.19804743e-02 -4.48155791e-01
  -1.22684330e-01  2.60173798e-01  9.25716534e-02 -6.51440071e-03
   4.38601077e-01  3.54258269e-01 -3.37853208e-02  2.18305469e-01
  -2.72125565e-02 -5.86979557e-04 -8.54398161e-02  2.50721276e-01]
 [-1.03583670e+00  1.34312540e-01  2.62717038e-01 -3.81870478e-01
   1.04872532e-01  1.04043789e-01  1.49899153e-02  9.14239958e-02
   2.16328382e-01 -6.07556812e-02  6.45444449e-03 -1.32557958e-01
  -1.37925017e+00 -3.46977741e-01 -7.77506158e-02 -8.92832503e-02
  -5.44479191e-01  8.89966637e-02 -4.03664447e-02 -1.39882624e-01
   2.71489266e-02  8.85110945e-02  6.37245029e-02 -1.45968169e-01
   1.04655176e-01 -3.52630801e-02  3.87413725e-02  1.80156976e-01
  -7.57457763e-02  8.29126686e-03 -1.38110340e+00  3.11112195e-01
  -1.11065936e-04 -2.30758879e-02  1.38458729e-01 -2.36475840e-01
  -7.70914674e-01 -7.48173743e-02 -4.38035354e-02  1.03238367e-01
  -5.36833048e-01  1.60918951e-01  1.11482292e-01 -3.10931299e-02
  -1.35801146e-02 -3.70583028e-01 -7.00120509e-01 -2.25232951e-02
   1.21895000e-01 -3.61133128e-01  9.82678961e-03 -2.63282299e-01
   1.54742002e-01  5.05808182e-02 -7.28870451e-01 -2.65101969e-01
  -2.48366103e-01 -9.53894034e-02 -2.24844217e-01 -7.53852725e-02
  -7.31490925e-02  1.72898144e-01 -1.24451950e-01  3.08878154e-01
   8.56194124e-02 -5.89554489e-01  1.12333369e+00 -1.96500853e-01
  -1.14140645e-01 -3.74274611e-01 -1.21595047e-01 -9.76521224e-02
  -1.07286312e-01 -3.92244250e-01 -4.45417792e-01 -1.12568224e-02
  -1.34362280e-01 -1.48977131e-01 -2.06056625e-01  9.44763944e-02
   1.05488058e-02  7.63780400e-02  6.11772388e-02 -4.34097908e-02
  -1.13026716e-01  3.05923074e-01  7.15491250e-02  1.61242917e-01
  -2.08803732e-02 -8.73405263e-02  7.92486966e-03  1.55620247e-01
   1.96244597e-01 -3.36874187e-01 -2.30189916e-02  3.15049380e-01
  -4.28956598e-01  8.77268985e-02 -2.78170109e-01  1.73785210e-01
   2.27893561e-01  1.10522412e-01 -1.03359330e+00  1.65018037e-01
  -1.28791258e-01 -7.14008436e-02  2.85162572e-02 -2.33561471e-02
   1.23756961e-03  6.28356040e-02 -1.34315169e+00  3.25338952e-02
  -3.48357081e-01  5.39847501e-02  2.57259980e-02 -3.87326747e-01
  -1.07718751e-01  1.55131310e-01  1.66133568e-02 -4.31146845e-02
   2.53802449e-01  1.85089886e-01 -4.78062518e-02  1.77084625e-01
   7.11857602e-02  6.79442957e-02 -1.09312087e-01  2.08388597e-01]
 [-9.87458408e-01 -1.25828357e-02  1.10300809e-01 -4.71178651e-01
   8.20289552e-02  1.06386123e-02 -8.38638395e-02 -1.35834916e-02
   2.00587347e-01 -3.76283638e-02 -6.58702254e-02 -1.14019677e-01
  -1.39203918e+00 -4.67848629e-01 -6.27329946e-02 -1.80474088e-01
  -3.09470832e-01  1.45689711e-01 -2.27471009e-01 -8.28661099e-02
   1.25895888e-02 -9.88939628e-02  1.34225994e-01 -1.49267569e-01
   1.92508996e-01  2.82132849e-02  1.24727888e-02  1.31240934e-01
  -2.94525083e-02 -5.58748003e-03 -1.18528080e+00  1.81061879e-01
   3.95441167e-02 -2.74878964e-02  1.41180664e-01 -3.25973302e-01
  -6.72039032e-01 -1.04143299e-01 -9.95669514e-02  2.99351573e-01
  -5.74068964e-01  1.61758125e-01 -4.10401449e-02 -5.97659498e-02
   5.02119511e-02 -3.83664757e-01 -5.28403580e-01 -3.50151546e-02
   5.63609824e-02 -2.37820849e-01  3.29135433e-02 -2.62698084e-01
   1.78987250e-01 -1.82944871e-02 -8.00002396e-01 -1.75077751e-01
  -3.68688583e-01 -1.10374928e-01 -1.85313836e-01 -2.17242762e-02
  -5.24446666e-02  1.73175067e-01 -2.50406824e-02  4.20127690e-01
   7.32017532e-02 -4.21533376e-01  1.03500175e+00 -3.48052114e-01
  -1.36588728e-02 -4.40598309e-01 -6.61704168e-02 -4.29731011e-02
  -1.09444417e-01 -3.54101300e-01 -4.70664114e-01 -1.29922867e-01
  -7.44103342e-02 -7.62376562e-02 -2.13911161e-01  1.76664442e-02
  -5.54481968e-02 -4.85922098e-02 -7.71014690e-02  7.40729943e-02
  -6.93046749e-02  2.61476427e-01  6.55432642e-02  1.49883166e-01
  -1.10791534e-01  4.00491841e-02  4.58815955e-02  1.37116298e-01
   2.16810495e-01 -2.95118898e-01 -5.87195382e-02  2.60149598e-01
  -2.68114537e-01 -5.47406822e-03 -3.54352176e-01  1.09096535e-01
   2.68085629e-01  4.74372581e-02 -1.48370254e+00  1.04134850e-01
  -1.25078335e-01  7.86912814e-02  2.37585753e-02  4.44873869e-02
   9.73000526e-02  1.76948719e-02 -1.20499742e+00  1.17872572e-02
  -2.84037441e-01  1.54493272e-01  1.29734725e-01 -4.86956716e-01
  -7.57787898e-02  1.51868626e-01 -4.83113118e-02  9.04452577e-02
   1.73134625e-01  9.79413614e-02 -4.98488396e-02  1.10895291e-01
  -1.45994360e-02 -9.92153361e-02 -3.39428103e-03  2.62029376e-02]
 [-1.01680458e+00  1.03052877e-01  7.05696121e-02 -4.67094541e-01
   1.25835329e-01 -1.62918076e-01 -2.17861477e-02  4.59842850e-04
   1.95231378e-01 -9.73957106e-02 -4.89215851e-02 -1.06896818e-01
  -1.47681463e+00 -3.75043184e-01  9.26311594e-03 -2.16357961e-01
  -1.25138015e-01  1.71201557e-01 -1.24342270e-01 -8.40174109e-02
  -2.02058200e-02 -1.24246657e-01  1.72248572e-01 -1.34763494e-01
   3.70101184e-01 -6.16071299e-02  5.63241392e-02  8.45313296e-02
   6.39042184e-02  3.56450025e-03 -1.23539448e+00  1.38172537e-01
   5.43688424e-02 -2.48131528e-02  1.00095652e-01 -2.83573866e-01
  -7.48412967e-01 -1.28350154e-01 -1.17763698e-01  3.34174275e-01
  -5.57689667e-01  1.26689017e-01  3.34326848e-02 -1.09226070e-01
  -8.25516786e-03 -3.76440763e-01 -4.86143857e-01  2.57629510e-02
   8.16404447e-02 -2.38294840e-01 -5.15140519e-02 -2.18857735e-01
   2.37585053e-01 -2.88174655e-02 -1.00946379e+00 -2.39345014e-01
  -3.52251709e-01 -1.64839536e-01 -1.88962221e-01  1.11390658e-01
  -3.52880657e-02  5.18128164e-02 -4.72687110e-02  3.55194539e-01
   1.75967038e-01 -4.49026108e-01  1.01524282e+00 -3.17136616e-01
   1.68077312e-02 -3.74544710e-01 -4.51264950e-03  4.62967120e-02
  -4.89887781e-02 -2.48353183e-01 -5.96616864e-01 -1.12564273e-01
   4.28261757e-02 -1.06457524e-01 -1.85790747e-01  6.77662790e-02
   8.16883817e-02 -4.36636358e-02  7.46312970e-03  2.05378205e-01
  -3.55516821e-02  2.14768663e-01  1.47530735e-02  8.26881751e-02
  -6.27149194e-02 -7.90109113e-02 -1.82536673e-02  1.80066213e-01
   8.17221776e-02 -1.56313151e-01 -1.07515112e-01  3.04254860e-01
  -2.55541772e-01 -5.23888357e-02 -5.18420100e-01  1.28121719e-01
   1.83250636e-01 -1.35225337e-02 -1.54678023e+00  1.12942723e-03
   1.19635905e-03 -4.89098858e-03  5.06907366e-02  1.85922859e-03
   5.03623970e-02  6.42191991e-02 -8.80644381e-01  3.34610827e-02
  -3.92832160e-01  7.00098351e-02  1.69934735e-01 -4.45656568e-01
  -1.88498609e-02  2.53053993e-01  3.58205242e-03  1.72288250e-02
   9.26941633e-02  1.59651153e-02 -9.73753259e-02  1.56955019e-01
  -1.01506963e-01 -9.55724120e-02 -1.73678547e-02  2.16694772e-02]
 [-1.12120664e+00  1.06961429e-01  8.18009451e-02 -6.11659586e-01
   1.36631683e-01 -1.26027495e-01 -2.76487954e-02 -5.84657630e-03
   1.68145031e-01 -1.18836485e-01  1.74720641e-02 -1.52691975e-01
  -1.45936620e+00 -2.73377836e-01 -5.18615060e-02 -1.91489652e-01
  -9.08232033e-02  1.68096557e-01 -1.41923502e-01 -1.63716465e-01
   1.05741203e-01 -3.82643849e-01  1.56987473e-01 -1.04241915e-01
   3.68887514e-01  8.80277455e-02  1.74797066e-02  1.76556945e-01
   7.53867775e-02  5.78621253e-02 -1.01962030e+00  4.37709428e-02
   8.08069557e-02  1.16296872e-01  1.98383927e-01 -2.88355500e-01
  -7.44742572e-01 -2.00687289e-01 -1.37647972e-01  3.77683014e-01
  -5.25785685e-01  1.32155374e-01  4.19171043e-02 -3.62222940e-02
  -7.07763955e-02 -2.54586101e-01 -2.86942750e-01  5.44488318e-02
   1.21698052e-01 -1.33325949e-01 -5.86101669e-04 -2.38263950e-01
   3.40028167e-01  3.03548519e-02 -9.03524280e-01 -7.20294639e-02
  -3.01915526e-01 -1.67008221e-01 -2.40312234e-01  6.65834621e-02
  -5.24595194e-02  1.28152907e-01  1.30324155e-01  4.02415812e-01
   1.35699093e-01 -3.88087600e-01  8.98971438e-01 -4.17957515e-01
  -1.46636358e-02 -3.80323261e-01 -2.77871806e-02 -4.82718162e-02
  -5.53546809e-02 -3.36622357e-01 -5.98091900e-01 -8.78521651e-02
   1.91900373e-01 -5.91539145e-02 -1.04114234e-01  1.50493920e-01
   3.69851515e-02 -3.68284583e-02  4.86856885e-02  2.06553161e-01
  -1.82736352e-01  1.00904524e-01  5.06704040e-02  6.12395480e-02
  -3.39426696e-02 -2.10182313e-02 -1.48069076e-02  7.76314884e-02
   2.31284782e-01 -1.88212976e-01 -1.46227598e-01  2.41767630e-01
  -1.48483381e-01 -1.62724525e-01 -3.93079817e-01  1.69417083e-01
   2.12273687e-01  3.73649448e-02 -1.15870750e+00 -1.51194811e-01
  -7.24325776e-02  2.90184300e-02  6.02423213e-02 -9.68769565e-02
   6.33631460e-03  3.45175788e-02 -7.32862890e-01  2.81238761e-02
  -3.81020725e-01  2.07901582e-01  3.13196070e-02 -4.44653511e-01
  -2.11853758e-02  2.33433247e-01 -6.44807741e-02  9.48136449e-02
   2.05954798e-02  7.02116638e-03 -8.56226459e-02  2.05182150e-01
   8.88061430e-03  6.94151456e-03 -9.04631764e-02  3.30995396e-02]
 [-1.01279604e+00  1.03703231e-01  3.54952812e-02 -6.07678175e-01
   3.64619419e-02 -9.31460634e-02  3.99129326e-03 -1.01572290e-01
   1.16273411e-01 -2.19259590e-01 -4.12778594e-02 -9.86810625e-02
  -1.46295750e+00 -3.40090871e-01 -1.30351469e-01 -1.26758456e-01
  -1.87135916e-02  1.56521276e-01 -1.54499680e-01 -1.68315560e-01
  -3.69138643e-02 -3.91403824e-01  8.51532519e-02 -1.24484517e-01
   3.26336324e-01  9.51608345e-02 -1.47982659e-02  9.90359336e-02
   9.57834646e-02  1.05825670e-01 -5.16210020e-01  1.01711072e-01
   9.29288715e-02  1.29859313e-01  1.00908615e-01 -3.31564218e-01
  -6.46276832e-01 -1.62828743e-01 -9.19288918e-02  2.93814212e-01
  -3.76787126e-01  2.15755738e-02  6.57302737e-02 -3.29157710e-02
  -1.32581502e-01 -2.16232598e-01 -2.93858707e-01  1.26856089e-01
   1.19728193e-01 -7.84841087e-03 -2.77233981e-02 -2.88100809e-01
   2.49799609e-01 -4.78563495e-02 -9.27940488e-01 -1.21752672e-01
  -2.99135834e-01 -7.34369680e-02 -2.67923802e-01 -6.53702542e-02
  -1.41940499e-02  6.59495592e-02  1.08925179e-01  4.11987543e-01
   1.35278493e-01 -2.21797392e-01  8.13232601e-01 -4.41458553e-01
  -1.72427237e-01 -4.23061073e-01 -1.41385943e-01  9.96401012e-02
  -7.35831484e-02 -1.32236287e-01 -6.64902151e-01 -8.91203433e-02
   1.40482336e-01 -1.49152242e-03 -1.67717822e-02  8.60712677e-02
  -4.08300497e-02  2.08481913e-03  6.26589060e-02  2.67479658e-01
  -2.08842739e-01  1.12899072e-01 -9.65543557e-03  1.74539760e-02
  -7.65014067e-02 -5.33797629e-02 -7.36241341e-02 -5.74352518e-02
   1.10550970e-01 -2.59930164e-01 -3.85668948e-02  3.64852399e-01
  -1.93830162e-01 -3.19732964e-01 -4.46458101e-01  8.46425444e-02
   2.81431437e-01  8.97295540e-04 -7.40528882e-01 -1.90049842e-01
   2.20211614e-02  5.63317835e-02 -2.43294388e-02 -4.94592376e-02
  -2.64592320e-02  3.15772630e-02 -5.54255664e-01  1.94743406e-02
  -3.35079283e-01  1.41268194e-01  5.43673187e-02 -5.00788212e-01
   4.87911180e-02  1.82991549e-01 -4.44440469e-02  1.17478751e-01
  -1.87275007e-01 -1.15122259e-01 -8.46707374e-02  5.11118658e-02
  -1.58768028e-01 -2.66545098e-02  1.26676802e-02  1.11387426e-03]
 [-9.14528608e-01  1.39033109e-01  1.03370100e-01 -6.24341309e-01
   5.95546700e-02 -1.46027938e-01 -8.93864408e-02 -1.67964958e-03
   2.41667345e-01 -3.04867804e-01  1.14257067e-01 -2.89821140e-02
  -1.37407863e+00 -3.13513845e-01 -2.59277225e-02 -6.86751166e-03
  -8.82158279e-02  1.26415834e-01 -2.14584127e-01 -8.44576582e-02
   5.79831526e-02 -5.60859323e-01 -5.76749705e-02 -3.77960466e-02
   3.03917497e-01  8.49537179e-02  4.09094468e-02  1.73352450e-01
   9.06498581e-02  6.57266676e-02 -1.04806408e-01  1.71273381e-01
   1.09170124e-01  3.32325920e-02  1.61496520e-01 -3.39275450e-01
  -5.06911397e-01 -1.62768483e-01 -1.48421153e-01  4.88973856e-01
  -3.71173561e-01  1.21109582e-01 -2.48053446e-02 -9.34841931e-02
  -3.17005329e-02 -4.08764333e-01 -1.24866828e-01  1.36521474e-01
   8.50250646e-02  4.84190788e-03 -4.60048169e-02 -2.35789061e-01
   1.72740787e-01 -1.68379657e-02 -9.51053202e-01 -1.62485629e-01
  -3.89163375e-01 -1.61955118e-01 -1.88434273e-01 -6.08417429e-02
   4.93934117e-02  1.42569512e-01  3.07759821e-01  4.69961494e-01
  -2.79586893e-02 -2.19388440e-01  8.08352351e-01 -4.70876187e-01
  -1.19390599e-01 -3.81283611e-01 -2.29190454e-01 -8.37013945e-02
  -3.61566134e-02 -5.13860732e-02 -7.71281123e-01 -2.00106110e-03
   2.13575035e-01 -3.12661170e-03 -2.60359030e-02  9.74714682e-02
   4.48595956e-02  3.02595198e-02 -1.80153036e-03  2.65348554e-01
  -9.61611718e-02  1.16968423e-01  9.86270681e-02  1.17151551e-02
   1.65922642e-02 -9.97977145e-03 -1.96309611e-02  1.22392701e-03
   9.03562158e-02 -1.21423632e-01  1.57679629e-03  3.78410846e-01
  -1.36133403e-01 -4.55813855e-01 -3.72483164e-01  1.40015811e-01
   1.79582328e-01  2.42144261e-02 -6.12830400e-01 -5.42903952e-02
   7.75643438e-02  4.61875536e-02 -2.71370783e-02 -4.10490036e-02
   8.94198641e-02  3.69980955e-03 -5.51685095e-01  1.44744841e-02
  -3.07275951e-01  1.36632979e-01  1.36418650e-02 -5.54080844e-01
   1.12249158e-01  3.29435498e-01 -2.04997778e-01  4.40097377e-02
  -3.91962171e-01 -1.57996446e-01 -1.09158896e-01  1.57464609e-01
  -8.91633704e-02  2.86103822e-02 -3.69387083e-02  1.07819457e-02]
 [-9.33530331e-01  1.99147612e-01 -3.52505893e-02 -6.35848403e-01
   3.82268429e-02 -1.81629419e-01 -9.00223404e-02  4.90553007e-02
   1.48462430e-01 -2.85986096e-01 -3.62154581e-02 -1.39250197e-02
  -1.24194372e+00 -4.19763833e-01 -1.43350556e-01 -7.07947537e-02
   1.25092815e-03 -4.25936207e-02 -1.61408097e-01  1.96754429e-02
  -3.74650508e-02 -7.17627525e-01 -8.27763304e-02 -7.85996318e-02
   2.07366839e-01  5.18718846e-02  1.79217570e-02  1.55153692e-01
   1.51149705e-01  5.19970506e-02  3.56488794e-01  9.43501592e-02
   7.73105398e-02  3.11423093e-02  2.26534232e-02 -3.08981180e-01
  -4.01817679e-01 -1.52423128e-01 -1.99134678e-01  3.08479339e-01
  -5.21972001e-01  1.01699568e-01 -5.63634210e-04 -4.09053825e-02
  -5.38648330e-02 -4.01087552e-01 -2.64799178e-01  1.59438267e-01
   2.14943811e-01  1.06314614e-01 -2.15996075e-02 -1.61578313e-01
   1.29851520e-01  1.97214503e-02 -9.40450847e-01 -9.63495895e-02
  -3.57353419e-01  9.41551290e-03 -1.92318618e-01 -5.86608313e-02
   9.13774520e-02  1.51185364e-01  1.97912648e-01  4.28310037e-01
   5.52754626e-02 -9.22393948e-02  6.82607234e-01 -6.47611260e-01
  -3.85143980e-02 -2.77585179e-01 -4.20330197e-01 -5.59546165e-02
  -5.96372709e-02  2.12077036e-01 -6.39286458e-01  1.89438497e-03
   2.28138015e-01 -2.43374389e-02 -7.92940333e-02  9.04694498e-02
  -2.58892756e-02 -4.66255993e-02 -6.05331324e-02  1.92612171e-01
  -1.21321917e-01  1.72592402e-01 -6.54142201e-02  8.12548175e-02
  -9.02408808e-02 -4.87775467e-02 -5.53586427e-03 -7.35734552e-02
   1.95636496e-01 -1.69572532e-01  1.06622484e-02  3.67081165e-01
  -1.92052960e-01 -6.83028936e-01 -3.70746791e-01  4.03817650e-03
   2.53013194e-01 -9.75912251e-03 -4.68961447e-01 -1.28753677e-01
   6.84876889e-02  6.54881597e-02 -9.16243643e-02 -6.90390989e-02
   1.66051418e-01  5.60461730e-02 -3.37267101e-01 -4.86735115e-03
  -1.64841697e-01  6.10330701e-02  1.47063479e-01 -5.22211552e-01
   2.01860040e-01  2.44468451e-01 -2.50351667e-01  1.26064511e-03
  -8.28064978e-01 -4.84834686e-02 -1.70399740e-01  2.19771668e-01
  -1.59187034e-01 -4.10593115e-03 -7.78797176e-03  7.27628246e-02]
 [-9.66067672e-01  8.63920376e-02 -1.03632718e-01 -6.19005919e-01
  -1.57897785e-01 -1.48086429e-01 -5.61708249e-02 -4.24370207e-02
   8.88236426e-03 -3.45745355e-01 -6.02381900e-02 -3.73192839e-02
  -1.25658607e+00 -2.88135707e-01 -8.19498897e-02 -1.19843274e-01
  -4.57230322e-02  6.76043779e-02 -4.56403568e-02  1.13551080e-01
   5.14520518e-02 -7.28102744e-01  1.89531548e-03 -1.44671276e-01
   1.85490116e-01  3.24390270e-03 -3.20587633e-03  1.60651892e-01
   7.26884678e-02  7.88431987e-02  5.80971062e-01  2.83649308e-03
   1.37511879e-01  1.47270225e-02  3.09223821e-03 -2.45675579e-01
  -3.21532577e-01 -1.48292765e-01 -3.74636084e-01  4.50331688e-01
  -5.79881430e-01  9.44742858e-02  1.59902852e-02 -1.81161594e-02
  -4.02346440e-02 -3.17987293e-01 -1.07750557e-01  1.21943466e-02
   1.27735078e-01  2.45495886e-01 -1.10058993e-01 -9.82278734e-02
   8.64241347e-02 -7.28302496e-03 -8.97588193e-01 -1.64859310e-01
  -4.26665246e-01 -2.62251943e-02 -1.59292445e-01 -7.30879977e-02
   8.68146420e-02  2.56543994e-01  2.44526163e-01  4.04719889e-01
  -6.04681559e-02 -3.39397974e-02  5.48715115e-01 -6.92874908e-01
  -5.07983267e-02 -3.90642613e-01 -4.55438495e-01 -1.91538520e-02
  -3.52701098e-02  4.23591465e-01 -6.29973829e-01  5.98955043e-02
   3.06186676e-01 -1.04181685e-01 -3.22514772e-02  1.03941374e-02
   3.72951813e-02 -1.88853703e-02  1.94067825e-02  1.23125777e-01
  -1.76139295e-01  6.17426261e-02  3.71740498e-02  1.55883387e-01
  -8.05687681e-02 -3.14745903e-02 -1.43823653e-01 -1.31830141e-01
   1.32486522e-01 -2.23687217e-01  8.35441984e-03  2.23141402e-01
  -1.30274758e-01 -1.00993061e+00 -3.54794264e-01  2.84740347e-02
   1.86598599e-01 -1.31369293e-01 -4.67593104e-01 -1.23253591e-01
  -1.00808125e-02  4.15950269e-02 -2.10495722e-02  1.72542538e-02
   8.42646658e-02  7.33496202e-03 -1.73793212e-01 -5.59982732e-02
  -1.12401783e-01  5.84169105e-02  8.27228874e-02 -6.26654625e-01
   2.65146434e-01  2.34283879e-01 -1.51249722e-01 -2.16894075e-02
  -1.02978563e+00 -2.36300528e-02 -1.25570163e-01  2.33116239e-01
  -2.60190934e-01 -1.61582474e-02  1.71441227e-01 -1.34674329e-02]
 [-9.56969976e-01  1.87116727e-01 -1.04694232e-01 -6.79219246e-01
  -2.01395974e-01 -2.68919051e-01 -6.41934350e-02  1.32811368e-01
   3.31231281e-02 -4.45128143e-01 -1.09791532e-01 -1.64370418e-01
  -1.03031790e+00 -1.91834062e-01 -1.13584109e-01 -5.79415485e-02
   6.91690519e-02  3.22707407e-02  4.95894738e-02 -1.01853739e-02
  -1.72003359e-03 -8.31614852e-01  1.77513249e-02 -9.27536488e-02
   2.75781691e-01 -3.84371467e-02 -3.62994801e-03  2.52070397e-01
   6.77341074e-02  7.01367557e-02  6.48273826e-01  1.03676982e-01
   2.14117587e-01  7.44576454e-02 -8.58235080e-03 -3.60848516e-01
  -4.21081007e-01 -1.86967745e-01 -1.55489221e-01  4.78241205e-01
  -4.63339716e-01  4.76084501e-02  2.47432329e-02 -4.71291468e-02
  -3.10616009e-02 -4.23501372e-01 -9.67820287e-02  3.67044797e-03
   1.89170301e-01  4.23600584e-01 -1.71357140e-01 -2.20620036e-01
   2.89373528e-02  4.95604575e-02 -9.08441424e-01 -9.80335250e-02
  -3.32337409e-01 -1.23704515e-01 -1.49081707e-01 -6.74812347e-02
   1.52126834e-01  1.78860515e-01  1.21667527e-01  4.44175631e-01
  -6.88452348e-02 -5.01725748e-02  5.13228059e-01 -8.14918160e-01
  -8.69877413e-02 -3.41895640e-01 -6.59212291e-01 -6.40798584e-02
  -7.51637155e-03  7.32933700e-01 -3.98500323e-01 -2.24108677e-02
   3.05588156e-01  7.97220021e-02 -5.56036606e-02  3.49355638e-02
  -7.45805129e-02 -1.39313471e-02 -3.78323682e-02  1.76009610e-01
  -1.55886337e-01  6.52115345e-02 -6.71282634e-02  9.74722281e-02
  -6.81505874e-02 -6.48073405e-02 -6.02919012e-02 -1.09181456e-01
   2.54588664e-01 -2.91302353e-01 -7.15945959e-02  2.00235128e-01
   3.99476662e-02 -1.11115944e+00 -3.49247813e-01 -1.25214726e-01
   2.75223464e-01 -5.75689934e-02 -3.03249955e-01 -2.24918127e-01
  -7.99775273e-02  1.11660443e-01 -7.70977736e-02  8.82350504e-02
   1.34545356e-01  1.29039377e-01 -2.42412001e-01  9.15074721e-02
  -4.54400294e-02  1.58005819e-01  6.43726289e-02 -5.90330124e-01
   2.34749421e-01  2.34724224e-01 -1.05242029e-01  1.76551640e-02
  -1.23539305e+00 -1.40628904e-01 -1.14763275e-01  3.14267099e-01
  -4.24684644e-01 -1.44711241e-01  2.20039889e-01  8.10266472e-03]
 [-1.04545569e+00  1.28721014e-01 -1.17338225e-01 -7.75420606e-01
  -3.32290024e-01 -8.56871977e-02 -6.52635545e-02  7.49871433e-02
   1.58026874e-01 -3.61711770e-01 -9.45260301e-02 -3.06547016e-01
  -1.00302851e+00 -2.35530823e-01 -6.79664686e-02 -1.94374323e-02
   5.80174802e-03  1.09987244e-01  7.75245437e-03 -1.21436128e-02
   2.93856692e-02 -6.94596589e-01  4.93251681e-02 -6.58935606e-02
   2.33121634e-01 -5.38643822e-02 -6.57061487e-02  4.85048704e-02
   1.84325412e-01 -1.51955581e-03  5.74740529e-01  8.71801376e-02
   1.69549942e-01  3.16346176e-02 -1.67097319e-02 -3.45700800e-01
  -3.10800046e-01 -2.70252556e-01 -2.74387151e-01  3.67766708e-01
  -3.92153829e-01  7.16254637e-02  4.44987938e-02  2.92388480e-02
   2.78798281e-03 -3.92238110e-01 -5.58038093e-02  7.53731057e-02
   8.44037458e-02  5.25251567e-01 -1.22234397e-01 -1.84694976e-01
  -1.74237951e-03 -2.02048384e-02 -9.10390496e-01 -1.09774791e-01
  -3.55721295e-01 -2.12460190e-01 -1.71342269e-01  8.17128643e-02
   1.30633414e-01  2.70432949e-01  2.48907968e-01  4.03537840e-01
  -1.72239766e-02  7.97988474e-02  4.24612850e-01 -7.29539037e-01
  -1.51098475e-01 -3.23047101e-01 -8.92813325e-01 -9.86482576e-02
   4.36806232e-02  8.72877777e-01 -3.25403899e-01 -7.26656020e-02
   2.90250331e-01  1.66069523e-01 -5.87490387e-02  4.20239754e-02
  -5.72611466e-02 -5.14121577e-02  9.67629999e-02  1.14217810e-01
  -1.63116470e-01  5.67365587e-02 -9.99044552e-02  3.77851911e-02
   5.61027937e-02 -5.31111620e-02 -5.82300164e-02 -3.14723223e-01
   2.13467270e-01 -3.45081210e-01  6.79348558e-02  2.25866243e-01
  -1.38682321e-01 -1.01764452e+00 -4.61337507e-01 -2.24352345e-01
   2.89160818e-01  1.01809681e-03 -2.38479719e-01 -2.86577731e-01
  -2.28286833e-02  3.57266888e-02  3.03428508e-02  3.00515760e-02
   1.81190386e-01  1.46954879e-01 -2.72317052e-01 -5.15125692e-02
  -1.91974327e-01  1.37943968e-01  6.59519657e-02 -6.74322009e-01
   1.96824908e-01  1.45406211e-02 -1.10507399e-01  7.86568373e-02
  -1.30167282e+00 -3.63576822e-02 -5.00180088e-02  1.99862391e-01
  -5.15072763e-01 -2.14187484e-02  2.38187715e-01 -4.19711024e-02]
 [-1.00896847e+00  7.22859129e-02 -5.60957342e-02 -8.37746620e-01
  -3.75834346e-01 -2.63741445e-02  5.06465808e-02  1.26578033e-01
   1.17420442e-02 -3.92699242e-01 -4.04321887e-02 -3.72846216e-01
  -9.50612664e-01 -2.13264093e-01 -4.79323380e-02  9.77947414e-02
   1.18940480e-01  1.93452269e-01 -6.23431569e-03  2.60428134e-02
  -3.59836183e-02 -6.06009543e-01  2.07342915e-02 -1.05382688e-01
   3.32632840e-01 -2.45887741e-01 -8.86538178e-02  1.30299449e-01
   1.76614359e-01  1.79906800e-01  5.65531611e-01  5.63065745e-02
   2.43649364e-01  6.59515038e-02  1.01660185e-01 -2.97940731e-01
  -3.01691502e-01 -1.96289092e-01 -1.55745432e-01  3.75571489e-01
  -3.61909211e-01  1.54940143e-01  4.19764547e-03 -4.67535518e-02
  -2.83171237e-02 -3.10280740e-01 -6.86897039e-02  4.03722040e-02
   1.42584562e-01  6.02375805e-01 -1.09566033e-01 -1.59453005e-01
   3.60230245e-02 -6.97054639e-02 -8.77717733e-01 -9.85668972e-02
  -3.64924341e-01 -1.95900783e-01 -3.03852528e-01  2.66246032e-02
   1.26128569e-01  1.93836153e-01  8.22836757e-02  4.29622412e-01
  -5.80106936e-02 -6.47276640e-02  3.21327239e-01 -6.55341744e-01
  -7.97133744e-02 -2.70337492e-01 -1.00003159e+00 -5.96655458e-02
  -1.99367702e-02  9.21827674e-01 -3.96910250e-01 -6.12463914e-02
   3.11368585e-01  2.52213657e-01  4.62420359e-02  1.35413364e-01
  -6.64479882e-02 -7.47831091e-02  1.02830812e-01  5.17018922e-02
  -1.69007093e-01  2.68805772e-02  9.20270383e-02  2.73089856e-02
   3.95032577e-02  3.71138975e-02 -4.24578972e-02 -2.84253627e-01
   3.12954098e-01 -1.53724939e-01  6.94570467e-02  1.17396720e-01
  -6.13262579e-02 -9.87549365e-01 -4.96863097e-01 -2.60529399e-01
   3.27930748e-01 -9.26617458e-02 -7.31173456e-02 -3.29144537e-01
  -6.03022575e-02  1.00374974e-01 -8.81975740e-02 -9.09896288e-03
   9.43824872e-02  8.79289508e-02 -1.95664257e-01 -7.80766085e-02
  -1.72120109e-01  5.37764281e-02  1.15647437e-02 -4.99068558e-01
   2.34697342e-01 -9.46839973e-02 -1.86144769e-01  7.97099248e-02
  -1.22680485e+00 -1.37274980e-03 -2.11588759e-02  1.66724473e-01
  -7.52678692e-01  1.03335887e-01  2.39803463e-01 -1.57668591e-01]
 [-9.33842957e-01  2.57450547e-02 -6.69118464e-02 -7.05952048e-01
  -2.75732309e-01 -5.15391715e-02  5.87340482e-02  2.90500484e-02
   2.48566661e-02 -2.09526479e-01 -7.14430735e-02 -3.95679653e-01
  -7.69674063e-01 -2.47817621e-01 -5.84018752e-02  5.60491383e-02
   7.00875372e-02  9.91480052e-02 -2.34996295e-03 -1.61770694e-02
  -1.33825904e-02 -4.38323617e-01  1.03575118e-01 -4.98712845e-02
   4.06590343e-01 -9.15499628e-02  8.73275846e-03 -6.83543086e-02
   1.14496194e-01  1.78694800e-01  4.39524025e-01  1.14028350e-01
   2.32377216e-01  1.82277113e-01  2.27551684e-02 -3.23174179e-01
  -2.74324775e-01 -2.96395332e-01  1.30674280e-02  2.36967087e-01
  -2.49521255e-01  4.98611629e-02  7.58808746e-04 -3.63636613e-02
  -5.01203863e-03 -3.27163428e-01 -1.68051720e-01  6.70909584e-02
   8.40299353e-02  6.58550084e-01 -1.52578399e-01 -1.47267073e-01
   5.23338746e-03 -2.42170751e-01 -8.63600433e-01  8.26647878e-02
  -3.47552240e-01 -1.73929244e-01 -3.53858709e-01 -2.44915765e-02
   8.68460760e-02  1.66331366e-01  1.09268680e-01  3.41219068e-01
   2.09699515e-02  2.41748104e-03  2.95594543e-01 -9.04250026e-01
  -1.79466628e-03 -3.36489290e-01 -8.80849361e-01 -9.70373228e-02
  -4.95328605e-02  8.21767628e-01 -3.55253756e-01 -8.27947035e-02
   3.60336423e-01  7.48585165e-02 -8.67382959e-02  1.03742518e-02
   3.86676891e-03  2.75533833e-02  1.97403282e-02 -2.53505111e-02
  -2.34395310e-01 -1.06137201e-01  1.73393756e-01 -3.70840705e-03
   7.58281723e-02  4.13027927e-02 -1.06891491e-01 -2.37986401e-01
   2.84053445e-01 -1.82102010e-01  1.22425817e-01  2.20230415e-01
  -2.84947325e-02 -8.75974059e-01 -4.53563333e-01 -3.54618520e-01
   2.51347065e-01 -3.58977169e-02  7.77751505e-02 -4.36235219e-01
  -5.06488234e-02 -9.14041605e-03 -8.63210037e-02 -4.97249775e-02
   1.09010898e-01  1.26834959e-01 -1.14273429e-01 -3.40369437e-03
  -2.42969304e-01 -4.64172140e-02  1.42660853e-03 -5.77118278e-01
   3.17535728e-01 -2.75024652e-01 -1.01757020e-01 -2.12298781e-02
  -1.19650280e+00  6.16402552e-02 -1.17805935e-02  1.62107553e-02
  -6.84896886e-01  2.90633775e-02  2.31194526e-01 -1.48859352e-01]
 [-1.03858685e+00 -5.09955101e-02 -1.90987602e-01 -8.36486101e-01
  -2.16788754e-01 -3.78786996e-02 -1.83015950e-02  1.68120768e-02
   1.08636528e-01 -1.64128348e-01 -9.70898122e-02 -3.17962408e-01
  -5.46339452e-01 -3.64616364e-02 -1.03603527e-01  1.21237502e-01
   1.06654741e-01  4.97156829e-02  8.28700289e-02 -6.98818713e-02
   1.06787883e-01 -1.91935599e-01  1.23487748e-01 -4.14052755e-02
   2.58825928e-01 -1.41079560e-01  1.00352265e-01 -1.99294522e-01
   6.86299871e-04  1.49719298e-01  3.35489392e-01  2.60465264e-01
   2.62336373e-01  1.09065562e-01 -6.38676584e-02 -3.98461103e-01
  -1.54721797e-01 -1.31544456e-01  5.49065880e-02 -1.68620013e-02
  -3.11735213e-01 -1.92368217e-02 -6.51279241e-02 -6.40456155e-02
  -1.47474250e-02 -2.66331375e-01 -5.61043434e-02  2.76560187e-02
   5.91137260e-02  6.83047414e-01 -8.50104839e-02 -1.21756889e-01
  -1.23086698e-01 -1.23360150e-01 -7.58645952e-01 -2.66549066e-02
  -3.52178931e-01 -1.18929166e-02 -2.97964901e-01 -4.12728004e-02
   1.34899944e-01  1.28465757e-01  3.74177881e-02  3.63791406e-01
   4.79341857e-02 -1.57146975e-02  2.76268780e-01 -9.07685041e-01
  -2.43376028e-02 -1.73292190e-01 -5.77578902e-01 -3.74638885e-02
  -5.38146757e-02  6.02359295e-01 -2.33424515e-01  8.87283776e-03
   2.84965187e-01 -1.42445043e-01  2.48153303e-02 -8.67244042e-03
  -3.82409096e-02 -7.36515522e-02  2.33978033e-02  3.35198939e-02
  -1.01144001e-01 -9.41707492e-02  1.03473872e-01 -6.36278316e-02
   1.97269898e-02 -1.06690206e-01  1.35781737e-02 -2.14815095e-01
   2.47751936e-01 -9.97222438e-02  1.31311482e-02  6.47770241e-02
  -1.73876598e-01 -9.25870538e-01 -4.31824803e-01 -3.61989826e-01
   3.15072775e-01 -7.39640072e-02  1.38409451e-01 -5.79968989e-01
  -1.34129122e-01 -1.16742797e-01 -5.75844944e-02  3.51763070e-02
   7.38382190e-02  1.08484223e-01 -7.54733607e-02 -7.82766864e-02
  -2.87837069e-02  5.53376712e-02  2.90794782e-02 -5.90957224e-01
   3.25610071e-01 -4.48297977e-01 -1.05795637e-01  9.39009562e-02
  -1.00341880e+00  7.65787214e-02 -3.64112146e-02 -1.24504916e-01
  -7.20554471e-01  7.76870502e-03  1.45480230e-01 -1.00537606e-01]
 [-1.01620412e+00  6.56051934e-02 -1.71709478e-01 -8.49419475e-01
  -1.60456821e-01  3.04641295e-02  5.80329075e-02 -1.51294768e-02
   8.74288604e-02 -4.75783721e-02 -1.32132649e-01 -3.57922822e-01
  -4.41317081e-01 -2.28873659e-02 -2.10318372e-01  7.61001334e-02
  -1.90544687e-02  1.58453882e-01  4.40496095e-02 -9.13538188e-02
   8.86562616e-02 -5.02229966e-02  1.56717554e-01 -2.40021176e-03
   3.67735118e-01 -2.28755735e-02  3.31103690e-02 -2.22921029e-01
  -2.42933165e-02  7.80944079e-02  1.97061241e-01  3.45086157e-01
   3.07820052e-01  6.18837364e-02 -8.62851888e-02 -4.73728001e-01
  -1.70846730e-02 -1.99561656e-01  1.27874330e-01 -2.19809279e-01
  -2.46247858e-01 -8.35301727e-02 -1.60509441e-02 -3.13027874e-02
   9.43174679e-03 -9.64819938e-02 -1.42298728e-01  1.44932076e-01
   7.12872446e-02  4.68161434e-01 -1.88831896e-01 -1.29471824e-01
  -2.54943550e-01 -1.90518066e-01 -6.35774732e-01  3.12146619e-02
  -4.00076449e-01 -9.66619030e-02 -2.44892582e-01 -1.85810566e-01
   1.68712690e-01  1.87236845e-01  1.44826379e-02  3.50282699e-01
  -5.34003116e-02 -2.57707778e-02  2.50334948e-01 -8.89581382e-01
  -1.51580051e-01 -2.46683463e-01 -3.50014508e-01 -1.30237907e-01
  -1.63644344e-01  4.90299046e-01 -5.61539494e-02 -1.75837465e-02
   2.24548638e-01 -2.39554316e-01  1.03952903e-02  7.03861266e-02
  -1.00699626e-02 -5.74369282e-02 -3.41571532e-02  8.29271823e-02
  -2.45701194e-01 -1.88880533e-01  2.06224188e-01 -8.74285325e-02
   2.65689399e-02  6.66956678e-02 -9.16145667e-02 -2.92466193e-01
   1.10672534e-01 -9.72195640e-02  1.12333231e-01  1.46388471e-01
  -1.10478401e-01 -8.84856761e-01 -2.53301948e-01 -4.10761297e-01
   1.75224692e-01 -8.58959034e-02  1.42911375e-01 -6.32302165e-01
  -2.94697762e-01 -7.90740848e-02 -6.40766835e-03  1.32153153e-01
  -2.88501102e-02  5.27475812e-02 -1.15939036e-01 -3.49536017e-02
  -1.47383250e-02  8.62111449e-02  1.60977691e-01 -4.83618021e-01
   2.46457472e-01 -7.78808415e-01 -9.15035009e-02  9.96615812e-02
  -1.09245944e+00  1.19933719e-02 -3.16047785e-03 -2.32885525e-01
  -4.73519027e-01 -3.40177678e-02  1.98817164e-01 -8.89593884e-02]
 [-1.07153618e+00  7.48974383e-02 -2.03203976e-01 -8.33287418e-01
  -1.44223675e-01  9.28117111e-02  7.41383731e-02 -6.98483586e-02
   8.78042951e-02  1.54728234e-01 -2.03785554e-01 -3.48326445e-01
  -1.12973608e-01  9.83189195e-02 -1.83692634e-01  4.57115732e-02
   7.57728070e-02  1.06047519e-01  6.65930361e-02 -1.44396201e-01
   5.13674878e-02  2.23382171e-02  1.16952233e-01 -1.06297888e-01
   2.96938419e-01 -2.87617557e-02 -6.34429455e-02 -3.77229571e-01
   2.25163810e-02  2.78490335e-02  2.62190819e-01  3.11248213e-01
   4.12162900e-01 -4.03285734e-02 -8.34899768e-02 -4.98436481e-01
  -1.01760454e-01 -3.17694545e-01  9.30285901e-02 -5.15045822e-01
  -4.28051353e-01 -4.58565243e-02 -9.73840579e-02  7.19779879e-02
   5.37549444e-02 -1.31144300e-01 -2.02918455e-01  7.79554397e-02
  -6.95895702e-02  4.14534092e-01 -1.98151469e-01 -1.89804837e-01
  -3.53580177e-01 -2.99445629e-01 -5.68696618e-01  2.84129251e-02
  -5.17760575e-01 -9.43820179e-02 -2.33323336e-01 -3.29708576e-01
   2.00284302e-01  1.04679398e-01  1.10984594e-01  1.39081538e-01
   4.76559065e-02  2.39299797e-02  1.81188375e-01 -9.66665924e-01
  -2.80370146e-01 -1.73381522e-01 -2.58169025e-01  1.05029315e-01
  -2.15147033e-01  4.06383812e-01  5.52642755e-02 -8.22768286e-02
   6.14620708e-02 -5.70208192e-01  1.40037388e-01 -1.20071685e-02
  -1.12127163e-01 -2.13256273e-02 -5.71643747e-02  2.33340356e-02
  -2.45883167e-01 -1.29250452e-01  1.53176546e-01 -1.92949429e-01
   1.33653609e-02 -6.58828393e-02 -1.72001675e-01 -1.46022901e-01
   1.38136670e-01  7.75933415e-02 -6.61286386e-03  2.86933370e-02
  -2.22015500e-01 -7.47527301e-01 -3.93267751e-01 -2.68542856e-01
   2.19565451e-01 -2.01901406e-01  3.18466485e-01 -8.01023066e-01
  -2.25986913e-01 -4.59608585e-02  4.81033213e-02  7.09530488e-02
  -1.57273218e-01  1.46437258e-01 -5.50169498e-02  3.27346986e-03
   3.80033106e-02  6.77462444e-02  2.49404207e-01 -3.29707652e-01
   7.45121688e-02 -1.20672953e+00 -6.55354485e-02  5.09521067e-02
  -1.06859374e+00 -4.81920503e-02 -1.15460753e-01 -3.29959869e-01
  -4.79943663e-01  4.31612320e-02  3.32009643e-01 -3.67023125e-02]
 [-9.55210268e-01  6.40130565e-02 -9.14558843e-02 -8.69298816e-01
  -7.37519711e-02  1.21773675e-01 -1.88438110e-02 -1.19919442e-01
  -6.34954125e-03  1.51980802e-01 -2.17522711e-01 -3.70755583e-01
   1.28975198e-01  3.24233361e-02 -1.04290336e-01 -8.01820084e-02
   1.48471236e-01  1.05677985e-01 -3.54747362e-02 -3.73491973e-01
   1.60775468e-01  4.86290045e-02  1.78172737e-01 -1.70279518e-01
   3.41966271e-01 -1.35367796e-01 -2.55856737e-02 -4.78431553e-01
  -7.52111748e-02  8.10354501e-02  2.19583526e-01  3.93537015e-01
   3.96925360e-01  5.77737764e-02 -8.45313892e-02 -6.98977947e-01
  -1.04725130e-01 -3.61198485e-01  4.75687496e-02 -8.10256660e-01
  -3.28826070e-01 -4.39277198e-03  5.52266352e-02 -6.48173317e-02
  -3.51606659e-03 -6.24981476e-03 -1.40952960e-01  1.25220060e-01
   2.05358230e-02  2.54314631e-01 -3.22625905e-01 -9.00463536e-02
  -2.80989945e-01 -2.61003166e-01 -5.17684519e-01 -3.62463892e-02
  -6.25911832e-01 -9.77618396e-02 -2.32467920e-01 -2.24059567e-01
   2.21555635e-01  9.64853764e-02  1.30323142e-01  1.71044007e-01
   5.14091738e-02  1.24627538e-03  4.04191092e-02 -8.27718198e-01
  -1.17120065e-01 -2.76660677e-02 -4.81130444e-02  7.03811347e-02
  -2.94112027e-01  2.94255793e-01  3.01376358e-02 -8.49834308e-02
  -1.55335605e-01 -9.30041730e-01  1.59586281e-01  6.21079933e-03
  -1.81142196e-01 -2.35660584e-03 -1.00800313e-01  1.70881208e-02
  -2.00160578e-01 -1.26955062e-01  2.71183133e-01 -2.18489587e-01
  -1.18089780e-01 -2.42036954e-02 -2.20484957e-01 -5.93260601e-02
   1.89909324e-01  1.40637621e-01  1.12575531e-01  1.53750613e-01
  -2.41380885e-01 -7.80318081e-01 -3.27073842e-01 -7.76024386e-02
   1.48025036e-01 -1.83947459e-01  2.86992162e-01 -7.84590781e-01
  -3.12087119e-01 -4.32422124e-02 -4.75697592e-02  1.85083016e-03
  -9.36525464e-02  9.74308625e-02 -2.69901156e-01 -4.71866280e-02
   6.02469444e-02  5.83030321e-02  1.27104163e-01 -2.42278427e-01
  -1.16171159e-01 -1.66098261e+00 -4.92658801e-02  7.43020978e-03
  -1.10163009e+00 -1.38476819e-01 -1.12661600e-01 -3.58430326e-01
  -5.83213091e-01 -1.05249751e-02  3.15291047e-01 -1.50622562e-01]
 [-1.11234677e+00  7.04758391e-02 -9.97769311e-02 -9.80255902e-01
   2.67170966e-02  1.35069117e-01 -3.24257798e-02 -9.36865732e-02
  -9.64625627e-02  2.57155359e-01 -2.56508917e-01 -3.60071570e-01
   2.11945355e-01  2.20443919e-01 -2.09229723e-01 -3.07632834e-02
   1.15227945e-01  1.00958422e-01 -9.07968059e-02 -4.06426579e-01
   1.32620126e-01  7.20094666e-02  3.99828777e-02 -2.12165490e-01
   4.19305205e-01 -4.84242626e-02  5.42519018e-02 -7.30109394e-01
   2.78073568e-02  4.18058522e-02  3.26542467e-01  4.39759105e-01
   4.47773218e-01 -1.45177066e-01 -1.69662490e-01 -7.25440145e-01
  -1.91085383e-01 -2.57271886e-01 -2.61964481e-02 -9.61188734e-01
  -2.96124369e-01  6.21939078e-02  6.23205900e-02 -6.92609698e-02
  -8.03175867e-02  8.09162855e-02 -4.63010371e-02  4.45520207e-02
  -5.22366166e-02  5.12597337e-02 -4.16535020e-01 -1.84285879e-01
  -2.96008945e-01 -3.55555385e-01 -6.22763813e-01 -7.18885884e-02
  -5.39661765e-01 -9.75277871e-02 -3.57488543e-01 -1.53940573e-01
   2.80750483e-01 -3.76825081e-03  1.58758327e-01  2.53838778e-01
   3.96933332e-02  7.63577595e-02  2.00843632e-01 -8.22874188e-01
  -1.41529232e-01 -9.50077996e-02  8.34141225e-02 -1.02844574e-02
  -3.05453807e-01  2.51756698e-01 -1.93767976e-02 -7.36755654e-02
  -4.58561122e-01 -1.20212543e+00  3.35893422e-01  2.21264400e-02
  -1.97725937e-01 -8.50879252e-02  2.50516441e-02  1.02873072e-01
  -1.14954844e-01 -1.68043021e-02  2.42926940e-01 -2.27594033e-01
  -1.35272503e-01  3.94443683e-02 -2.32299551e-01 -7.37540200e-02
   1.87721714e-01  2.97935039e-01  5.24794459e-02  1.49038047e-01
  -1.18697166e-01 -4.76777792e-01 -5.32916546e-01  7.69398585e-02
   1.97208807e-01 -2.25440994e-01  1.88640714e-01 -9.10640538e-01
  -1.96346655e-01  5.81058078e-02 -7.04549626e-02  1.64931402e-01
  -1.86764941e-01  1.64311364e-01 -3.87869835e-01 -1.13529921e-01
   1.58282697e-01  2.50184894e-01  2.49552995e-01 -2.89970070e-01
  -2.14681596e-01 -1.92354870e+00  4.18446846e-02  1.65507495e-01
  -9.49399054e-01 -2.37925239e-02 -4.74892035e-02 -4.11343634e-01
  -5.69357932e-01  9.62786749e-02  2.58802086e-01 -4.39843312e-02]
 [-1.21249306e+00  9.60158557e-02 -1.02642395e-01 -1.14177632e+00
  -7.86240697e-02 -7.00660348e-02 -2.27106810e-02  1.19545478e-02
  -1.46864951e-01  2.39202902e-01 -2.88780659e-01 -4.22832280e-01
   3.46383810e-01  3.29274148e-01 -2.11574763e-01  3.17598693e-02
   2.39998907e-01  1.45279065e-01 -2.89609492e-01 -6.55974030e-01
   9.39909890e-02  3.78137417e-02  1.82672784e-01 -3.10808361e-01
   5.85156202e-01 -2.82579120e-02  1.16121359e-01 -9.75830197e-01
   1.90216273e-01  3.17189805e-02  5.90675354e-01  4.14670020e-01
   5.59751630e-01 -2.63355821e-01 -2.36234739e-01 -6.55447066e-01
  -5.14812954e-03 -4.29696232e-01 -8.73240307e-02 -1.40391266e+00
  -3.40802938e-01 -1.27723247e-01  1.70435831e-01  9.59636737e-03
  -1.10255778e-01  1.45866528e-01 -1.94634125e-02  2.30457652e-02
  -7.91620985e-02 -2.10163623e-01 -4.90195036e-01 -2.32578292e-01
  -4.86680329e-01 -4.57756907e-01 -7.64013112e-01 -3.63503158e-01
  -5.87685287e-01 -1.24396428e-01 -7.44541347e-01 -2.27108181e-01
   3.50890845e-01  1.52877912e-01  1.45220906e-01  4.65602219e-01
   1.76153392e-01  1.35054812e-01  2.37757593e-01 -8.37987721e-01
  -4.36399251e-01 -5.71688190e-02  2.57581830e-01 -9.51031670e-02
  -5.70079088e-01  2.03138694e-01 -8.42550918e-02 -8.90260413e-02
  -6.45704150e-01 -1.30059588e+00  4.67822105e-01 -1.50376230e-01
  -2.89653093e-01  5.62603027e-02 -6.47199824e-02  4.21148777e-01
  -2.09844336e-01  5.19393943e-02  2.82537729e-01 -3.13699096e-01
  -4.79217470e-02 -5.57133257e-02 -1.38999581e-01 -3.61162312e-02
   1.36267617e-01  4.74940121e-01 -2.22690761e-01  2.19876945e-01
  -1.45988926e-01 -1.99632451e-01 -8.65589738e-01  5.13524830e-01
   4.20514613e-01 -2.24301070e-01 -2.65074964e-03 -9.98600662e-01
  -3.14248800e-01  3.23260546e-01 -6.95907325e-02  9.01075602e-02
  -2.26964250e-01  2.61839747e-01 -3.32195878e-01 -1.06103383e-01
   2.50415772e-01  2.51179010e-01  3.54874492e-01 -6.14787102e-01
  -4.39618498e-01 -1.65302169e+00  1.44022331e-01  2.00944871e-01
  -9.91131663e-01  1.46984104e-02 -2.18778402e-01 -5.09170532e-01
  -5.73615968e-01  4.81229555e-03  1.88442588e-01 -1.87871099e-01]
 [-9.67660427e-01 -3.74376059e-01  1.87879324e-01 -7.27227747e-01
   3.48137468e-01  2.19661355e-01  5.37805632e-02 -7.08594561e-01
   2.20958635e-01 -1.10420346e-01 -2.17461258e-01 -1.40720174e-01
  -1.00725234e+00  2.60164201e-01  1.44883916e-01 -1.77660182e-01
  -1.75641134e-01  1.04773596e-01  4.28860933e-02 -1.32710084e-01
   1.42504439e-01  2.97271106e-02  6.01350293e-02 -4.27202761e-01
  -7.74383903e-01  1.05530396e-01 -1.42509297e-01  2.08208919e-01
   2.32204288e-01  2.63504349e-02 -1.36376441e-01 -4.46158350e-02
   3.23457748e-01 -1.26162931e-01  4.37331617e-01 -5.52269518e-01
  -9.55180347e-01 -2.53651500e-01  5.37243605e-01 -1.03846908e+00
  -3.37412804e-01  2.36858148e-02 -1.10959470e+00 -1.18236914e-02
   1.16385221e-02 -3.41116130e-01 -6.67249560e-01  6.53438047e-02
   4.35608737e-02 -5.29257298e-01 -2.60657549e-01 -3.36143136e-01
  -4.91349213e-02 -3.65121633e-01  1.40943471e-02 -1.27866957e-03
  -3.64109665e-01  1.68841705e-01 -1.70913428e-01 -3.67428288e-02
  -9.03740749e-02 -1.62601262e-01 -2.19341770e-01  1.44977927e-01
  -8.13576300e-03 -4.31375317e-02 -8.85161340e-01 -6.00336716e-02
   3.50645542e-01 -4.93556380e-01 -5.22918701e-01 -4.22180623e-01
   1.99604720e-01 -4.93131399e-01 -5.89425325e-01 -8.40143785e-02
  -7.56425917e-01 -1.76880538e-01 -4.72619772e-01  6.96576014e-02
  -1.46077037e-01 -2.44531929e-02 -5.47298938e-02 -8.43882084e-01
  -3.48858595e-01 -4.39070612e-02 -1.64069445e-03  2.65787840e-02
  -4.64053720e-01  6.58041760e-02 -9.59885307e-03 -7.62160495e-02
   5.16903698e-01  4.30941954e-02 -7.03206286e-03  3.02947193e-01
   5.07550836e-02  3.21039468e-01 -2.75017947e-01  1.15654215e-01
  -5.61161876e-01 -4.53909189e-02 -7.71136642e-01  6.23278692e-02
   7.16882527e-01 -6.27002120e-01  2.39235908e-03 -1.08571053e-01
   9.10980329e-02 -5.47129707e-03  1.54534891e-01  5.31570613e-02
  -3.23877811e-01 -3.02726001e-01 -8.85072768e-01 -2.41443604e-01
  -3.25119883e-01  1.45571753e-01  8.60365629e-02  1.75310016e-01
  -7.56744266e-01 -1.73571610e+00 -3.24039072e-01 -1.29583567e-01
   2.41656169e-01 -6.09384067e-02  2.82753021e-01 -1.25145055e-02]
 [-6.17068172e-01 -1.62881568e-01  8.42820182e-02 -4.59718913e-01
   7.06459358e-02  2.33674526e-01  1.05292477e-01 -3.53413254e-01
   1.21655479e-01 -1.26811028e-01 -5.96591122e-02 -2.46755406e-01
  -5.03757954e-01  2.39746451e-01  7.99486563e-02 -1.06696665e-01
  -2.29112804e-01  1.78060338e-01  2.63181544e-04 -1.12124890e-01
   1.89058065e-01 -3.86571996e-02  1.78501144e-01 -1.88913360e-01
  -4.55137312e-01 -5.62068187e-02 -2.56013591e-02  6.77580386e-02
   8.22636634e-02  1.12212300e-01 -1.95410252e-01 -2.97917202e-02
   1.09371580e-01 -9.58559513e-02  1.73890203e-01 -6.21225297e-01
  -8.33434403e-01 -2.57985085e-01  5.20604551e-01 -7.76272535e-01
  -3.54127526e-01 -6.08190708e-02 -6.22322559e-01 -3.08638960e-02
  -4.41959053e-02 -2.65403658e-01 -6.34625912e-01  8.54017492e-03
  -4.60301787e-02 -2.83738881e-01 -7.27430955e-02 -1.71399772e-01
   3.68805900e-02 -4.05354857e-01 -1.62338987e-01 -2.05047831e-01
  -1.26935467e-01  5.39945923e-02 -1.96618661e-02  6.02006167e-02
  -1.71619624e-01 -2.03613520e-01 -3.80530119e-01  5.25180921e-02
   3.75873153e-03 -1.68732762e-01 -5.90499818e-01 -8.87512863e-02
   1.58292159e-01 -1.33450672e-01 -3.24382514e-01 -3.91690761e-01
   1.83117941e-01 -3.92063946e-01 -4.42169994e-01 -1.42589035e-02
  -6.14137292e-01 -3.34309638e-01 -2.47240335e-01  8.08434039e-02
  -1.13453798e-01 -3.93258296e-02 -1.72918271e-02 -9.92436528e-01
  -3.04743975e-01 -7.48021230e-02  7.20794126e-02  7.58825103e-03
  -2.26487607e-01 -4.28850837e-02  1.21430941e-01 -2.96837855e-02
   3.61596733e-01  3.94618604e-03 -1.50997505e-01  9.78607833e-02
  -1.65402859e-01  2.24727571e-01 -2.65404493e-01  3.95436808e-02
  -3.78131211e-01 -1.48337744e-02 -3.84290278e-01 -9.59319398e-02
   3.25427413e-01 -6.14841819e-01  2.90899891e-02 -7.08942115e-02
  -3.63359526e-02  2.38574147e-02 -1.93910941e-01  7.20798373e-02
  -2.80964017e-01 -1.47199929e-01 -6.37560248e-01 -3.09464604e-01
  -2.18462765e-01  1.35945424e-01  1.66208103e-01 -6.72986880e-02
  -3.66461962e-01 -1.42346954e+00 -1.69331536e-01 -7.48550594e-02
   1.59201503e-01  2.84423307e-03  2.48443931e-01  6.95052072e-02]
 [-3.88329595e-01  4.89381440e-02  3.38934138e-02 -3.10077637e-01
   3.58665995e-02  1.59051314e-01  5.05974926e-02 -1.17283389e-01
  -6.28606677e-02 -2.29773317e-02  9.15285498e-02 -2.59298325e-01
  -4.72975999e-01  2.94236362e-01 -4.50941287e-02 -7.11203441e-02
  -2.16540918e-01  1.59766272e-01 -6.19920641e-02 -1.47843733e-01
   1.08928392e-02  5.12920618e-02  3.97625472e-03 -5.92068285e-02
  -3.17683041e-01 -4.69475798e-02  3.80663872e-02  7.08892345e-02
   1.19153276e-01  8.16608742e-02 -2.76365995e-01  4.75293882e-02
  -1.04294486e-01 -5.72758391e-02  1.04635157e-01 -7.34095991e-01
  -8.42759311e-01 -2.76836663e-01  4.08719808e-01 -5.60595512e-01
  -2.18169615e-01 -5.63962087e-02 -3.55399162e-01 -5.72035052e-02
   6.91335872e-02 -1.31974176e-01 -7.22026706e-01  6.95563329e-04
  -7.76468739e-02 -2.07444400e-01 -1.49665773e-01 -2.06898957e-01
   5.42569160e-02 -2.66771436e-01 -1.16736799e-01 -1.87128618e-01
  -1.14486098e-01  1.85489450e-02 -1.49005475e-02  7.40702776e-03
  -1.57137886e-01 -7.37525374e-02 -3.66608083e-01  1.66323826e-01
  -7.47227445e-02 -2.74221241e-01 -3.01856399e-01 -7.13251010e-02
   7.57229254e-02 -6.33822083e-02 -2.41319135e-01 -3.46397042e-01
   5.53911999e-02 -3.81328821e-01 -2.56658465e-01 -4.74833250e-02
  -5.77032328e-01 -3.16286296e-01 -6.56497106e-02  1.29081964e-01
  -1.67033836e-01  8.26791953e-03  2.23249104e-02 -1.04818344e+00
  -1.62955910e-01 -1.61272869e-01  1.53056026e-01  7.15328604e-02
  -3.39795050e-04 -2.30851099e-02  3.94585617e-02  1.06390730e-01
   2.31458589e-01 -1.64275244e-02 -7.11253285e-02  4.92434837e-02
  -3.28512907e-01  2.00057492e-01 -2.00290069e-01 -2.21013334e-02
  -2.42367625e-01 -1.00535631e-01 -1.93004534e-02 -1.36231467e-01
   1.07638836e-01 -4.13697779e-01 -2.25443277e-03  3.92219936e-03
  -3.44721340e-02 -1.46522373e-02 -3.17627579e-01  6.36608303e-02
  -3.09657127e-01 -1.89290360e-01 -4.30356115e-01 -3.32827002e-01
  -1.76035523e-01  2.27460161e-01  1.44281507e-01 -5.23836631e-03
  -8.54150429e-02 -1.08959365e+00 -4.23273407e-02  3.94445620e-02
   1.81188017e-01  5.39413802e-02  2.87324786e-01 -8.86583030e-02]
 [-4.59624112e-01  4.01739553e-02 -7.81256333e-02 -4.53290403e-01
   6.80228099e-02 -3.21468757e-03  1.39383869e-02  1.39779463e-01
   5.91701008e-02 -1.26390308e-02  8.76873955e-02 -3.13146710e-01
  -4.96249586e-01  2.74821579e-01 -1.78953018e-02 -1.77170396e-01
  -3.50089490e-01  2.21009403e-01  7.60147795e-02 -7.99815729e-03
  -2.38923058e-02  8.75590742e-02  8.93452764e-02 -1.94802970e-01
  -2.88666397e-01 -1.53550822e-02 -7.90236294e-02  3.85672338e-02
   8.99199396e-02  4.86113392e-02 -2.39933640e-01  9.57892239e-02
  -1.80626139e-01 -4.93829288e-02  9.98226777e-02 -8.00366402e-01
  -8.54948640e-01 -3.43775243e-01  4.07626718e-01 -4.98658955e-01
  -2.60960698e-01  3.36306170e-03 -9.83746424e-02 -2.83460715e-03
  -6.72585517e-03 -2.13582709e-01 -7.45293915e-01  1.20680600e-01
   2.69515589e-02 -3.17714989e-01  3.86892855e-02 -1.13146082e-01
   8.24780911e-02 -6.10796139e-02 -2.82522351e-01 -2.79111981e-01
   2.45445985e-02  8.24092925e-02  5.54464050e-02  2.41413713e-02
  -4.90533747e-02 -1.70283578e-02 -4.03203875e-01  9.27818194e-02
  -4.90860194e-02 -1.53456107e-01 -2.78310776e-01 -8.46180841e-02
   6.59705922e-02 -9.66395736e-02 -1.44780532e-01 -4.30692285e-01
  -4.98664454e-02 -4.30684358e-01 -1.59480572e-01  2.85865236e-02
  -5.64476430e-01 -5.04700005e-01 -1.06103361e-01  1.33706450e-01
   1.02270273e-02 -2.18846509e-03 -4.74429578e-02 -1.03598011e+00
  -6.32598624e-02  3.85311991e-02  1.71180353e-01  6.52927458e-02
   1.15749732e-01 -4.36121412e-02  6.45190701e-02  2.97012836e-01
   7.36579672e-02 -1.25946477e-01 -8.01110715e-02  7.33383521e-02
  -2.65617847e-01  1.15028381e-01 -3.07489157e-01  5.64490035e-02
  -1.74526293e-02  6.99326443e-03  1.12638243e-01 -9.22875851e-02
  -5.54331727e-02 -3.92648041e-01 -6.03288896e-02 -8.17431808e-02
  -5.39170839e-02 -1.00943260e-02 -4.95983005e-01  2.65096454e-03
  -2.47600108e-01 -7.96223711e-03 -5.27154088e-01 -3.47431064e-01
  -2.45602965e-01  9.32242572e-02  8.65238979e-02 -1.01454601e-01
   9.73548740e-02 -6.04223192e-01 -1.02239989e-01 -8.73218849e-02
   1.36030138e-01  1.28094032e-02  1.73743535e-02 -3.60692814e-02]
 [-5.62628329e-01 -4.88112532e-02  3.78885493e-02 -4.04045224e-01
  -4.13527451e-02  7.66093507e-02  4.63264138e-02  2.97361165e-01
   3.76361422e-02 -2.14090943e-02  6.67321607e-02 -3.04367512e-01
  -4.50718015e-01  2.29737565e-01 -3.64036411e-02 -2.10440859e-01
  -5.34244716e-01  1.92484483e-01  4.79977839e-02 -1.50236636e-01
   1.97051149e-02  8.60465318e-02 -4.89093661e-02 -1.87071025e-01
  -1.87549219e-01 -9.07509327e-02 -1.43968210e-01 -6.96033565e-03
  -1.79387606e-03 -6.78606257e-02 -2.55096018e-01  2.65906811e-01
  -1.67061910e-01 -9.04308781e-02  3.21222059e-02 -7.01084793e-01
  -7.83648252e-01 -2.64158785e-01  3.37951154e-01 -4.36106265e-01
  -2.03782454e-01  4.97340634e-02  6.97656795e-02 -2.97024399e-02
  -2.53177620e-02 -2.74996102e-01 -7.83787966e-01  1.34229988e-01
   9.75387916e-02 -3.14482152e-01  3.53914164e-02 -1.34549052e-01
   1.17314599e-01  8.55495185e-02 -4.28084522e-01 -2.22978815e-01
  -8.93625841e-02 -2.66167261e-02 -1.52664271e-03 -6.08871616e-02
  -7.10441023e-02  3.34450006e-02 -2.55806208e-01  1.16612516e-01
   2.65381709e-02 -2.09772766e-01 -2.13564798e-01 -9.03359279e-02
   2.80930176e-02 -2.49951184e-01 -8.78625810e-02 -4.22367930e-01
   4.96587493e-02 -3.67300570e-01 -1.91614315e-01 -1.81809347e-03
  -5.20438015e-01 -5.78598797e-01 -1.04321554e-01  1.85445204e-01
  -9.17631537e-02  4.82576787e-02 -3.12851481e-02 -9.67009425e-01
  -2.94079464e-02 -4.60039787e-02  2.52426565e-02 -1.10282287e-01
   1.08816154e-01 -1.60420574e-02  1.80820953e-02  3.00987691e-01
   1.35005936e-01 -7.29427934e-02 -1.86594333e-02  1.62400737e-01
  -2.93420613e-01  8.88873860e-02 -2.16813236e-01  1.17571875e-01
   7.07039908e-02  1.91112328e-02  9.71877202e-02 -3.20863537e-02
  -1.24074437e-01 -3.08705091e-01 -2.79733464e-02 -7.87922665e-02
  -1.53908014e-01 -7.08171278e-02 -6.42152667e-01  3.24629880e-02
  -1.94744155e-01 -1.33018186e-02 -4.51573342e-01 -4.34763163e-01
  -1.04383834e-01  1.33029446e-01  2.42565200e-01  6.99393898e-02
   2.23154873e-01 -2.27655664e-01 -1.98317170e-01  1.12535432e-03
  -1.53149003e-02 -1.30749092e-01 -1.00732550e-01  7.98452422e-02]
 [-5.09017646e-01  6.34526759e-02  1.31194983e-02 -3.79838914e-01
   1.13347999e-03  8.08556974e-02 -9.54503790e-02  1.74114272e-01
   1.11746088e-01  1.94524433e-02  1.01619080e-01 -1.19426914e-01
  -3.18186820e-01  2.79061496e-01  2.18509361e-02 -7.85304531e-02
  -6.58382893e-01  1.16569638e-01 -1.88901108e-02 -1.44060224e-01
  -9.09321476e-03  1.79175898e-01  5.44467159e-02 -1.08526848e-01
  -2.71923542e-01 -5.78587782e-03 -6.16087541e-02 -6.69197273e-03
   6.13659918e-02 -1.90195069e-02 -3.32765013e-01  1.86692148e-01
  -5.48847690e-02  4.96976897e-02  6.52621165e-02 -4.87858713e-01
  -6.46943629e-01 -1.50153071e-01  2.42696539e-01 -2.70224690e-01
  -2.20893919e-01  8.67469162e-02  3.10097951e-02 -8.92721936e-02
  -2.90311072e-02 -2.07188413e-01 -6.09978199e-01 -3.69042857e-03
  -5.23520820e-03 -3.19197029e-01  1.23598263e-01 -1.65331587e-02
   1.19155087e-01  1.84747919e-01 -3.74468237e-01 -1.56456530e-01
   8.82618409e-03  4.08091508e-02  6.76814467e-02 -4.43770811e-02
   1.03354547e-02  9.71277282e-02 -1.83657244e-01  1.46541387e-01
   4.45186831e-02 -7.38370195e-02 -1.93782255e-01 -4.47750129e-02
  -3.46598476e-02 -1.05216265e-01 -9.38265398e-02 -2.82252163e-01
   7.32470229e-02 -4.48679537e-01 -2.71362782e-01 -3.19885276e-02
  -5.26905417e-01 -8.37481856e-01 -1.32980004e-01  9.36779827e-02
   2.32804678e-02 -2.71277297e-02  3.57599999e-03 -1.02547228e+00
  -5.44750597e-03  1.15085199e-01  3.45363393e-02 -9.19723213e-02
   5.64780310e-02  1.54928444e-02  3.02462280e-02  3.01793665e-01
   4.93820421e-02 -4.79759537e-02 -8.02942663e-02  1.67090341e-01
  -1.65616512e-01  1.69315949e-01 -1.62011474e-01  6.20996170e-02
   2.84923553e-01  7.38497078e-02  5.38312569e-02  2.27109753e-02
  -2.31969520e-01 -1.50859579e-01  6.48210049e-02 -4.48451601e-02
  -1.22672133e-01  6.85456255e-03 -7.23720431e-01  5.76403700e-02
  -2.21960753e-01 -9.62537080e-02 -5.23605943e-01 -3.12528580e-01
  -2.12565899e-01  1.67351887e-01  1.62832662e-01  3.84119861e-02
   1.43017754e-01  6.82360232e-02 -9.34491754e-02  1.26192331e-01
   8.55992213e-02 -4.47970117e-03 -1.00092784e-01  1.56646177e-01]
 [-6.04143381e-01  8.12494308e-02  4.61533181e-02 -2.91186988e-01
   5.70685556e-03  1.33761048e-01  6.03058189e-02  1.90904513e-01
   1.54877424e-01 -6.55700220e-03  1.24633200e-01 -1.61587611e-01
  -4.14888561e-01  2.32988566e-01  5.41828573e-03 -1.84379667e-01
  -6.86324418e-01  7.67020956e-02 -9.30617973e-02 -5.18449247e-02
  -1.12126935e-02  2.10904792e-01 -2.74266750e-02  1.31159425e-02
  -1.34674251e-01  7.81008229e-02 -6.91277310e-02  4.68873568e-02
   5.47982305e-02  1.02868810e-01 -2.54971504e-01  2.18401164e-01
  -5.67640364e-02 -3.22227478e-02 -5.35282418e-02 -1.95490718e-01
  -5.41966379e-01 -6.63647875e-02  2.51006424e-01 -1.88813701e-01
  -3.09902281e-01  6.66701719e-02  1.75364450e-01  3.89063247e-02
  -6.64870143e-02 -2.02096716e-01 -6.33841932e-01  5.59005328e-02
   9.57122669e-02 -3.67911309e-01  9.62073430e-02 -1.03348888e-01
   2.54016727e-01  1.07431322e-01 -4.61153984e-01 -8.53057727e-02
   1.02463719e-02  9.62485448e-02 -5.92287444e-02  8.23897868e-02
   4.22559232e-02  3.60954925e-02 -1.38221383e-01  2.44907975e-01
   3.66614724e-04 -1.21543542e-01 -1.31699592e-01 -6.10246807e-02
  -1.08797900e-01 -1.54105932e-01 -2.21268982e-02 -1.86504588e-01
   3.81204113e-02 -4.37393188e-01 -2.86767513e-01 -1.58989802e-02
  -5.21660924e-01 -8.25293839e-01 -2.59382546e-01  4.98608984e-02
  -1.59964822e-02  9.38219018e-03  6.40002489e-02 -1.00937259e+00
  -4.96769398e-02  9.74072292e-02  1.24723777e-01 -1.19856313e-01
   6.52095024e-03  4.55282927e-02  2.00353600e-02  2.73753822e-01
   1.11557864e-01 -1.06532782e-01  2.44959407e-02  2.72049457e-01
  -2.64964730e-01  9.48641300e-02 -2.39307523e-01  7.92801678e-02
   2.77660757e-01  1.59300372e-01 -7.40093067e-02  7.57118240e-02
  -1.60682797e-01 -1.23666234e-01 -9.07048434e-02  9.50792991e-03
  -8.72529298e-02 -1.56020239e-01 -8.85105848e-01 -1.83007941e-02
  -1.24547198e-01  5.16988756e-03 -5.93660712e-01 -3.16849351e-01
  -1.12938017e-01  1.79495990e-01  1.49516284e-01  8.37507918e-02
   2.04486176e-01  2.80131638e-01 -1.26070291e-01  5.42933214e-03
   3.47433425e-02  3.41435596e-02 -3.06070656e-01  1.80017158e-01]
 [-5.24081707e-01  5.03631830e-02  1.56883731e-01 -3.51361603e-01
   1.43775195e-01  5.30117527e-02  3.74137610e-02  1.69153690e-01
   1.46195233e-01 -1.65688489e-02 -3.30509618e-02  2.42485479e-02
  -2.86108226e-01 -7.92346615e-03  1.39056906e-01 -2.06029966e-01
  -6.46056235e-01  6.08173981e-02 -9.46969315e-02 -1.31803393e-01
   1.64319240e-02  4.62585725e-02 -4.39120363e-03 -4.33194973e-02
  -5.65616600e-02 -8.17264803e-03 -7.51174539e-02 -2.76001194e-03
  -2.84920763e-02  4.84375507e-02 -2.94197917e-01  2.37651244e-01
  -1.54905453e-01 -3.03966906e-02 -4.18578386e-02 -1.02472559e-01
  -5.63139975e-01 -1.31073326e-01  2.21257359e-01 -4.45416942e-02
  -2.68644243e-01 -3.47442888e-02  1.50742695e-01  3.91548015e-02
  -7.06787929e-02 -1.20829023e-01 -8.54240656e-01  5.87673001e-02
   6.20848015e-02 -3.52126032e-01  1.30702063e-01 -5.99836968e-02
   1.57813132e-01  1.09901875e-01 -5.55759609e-01 -1.05620451e-01
   1.14128003e-02  1.23896576e-01 -1.38207704e-01 -3.27971093e-02
   2.64673177e-02 -5.20543866e-02 -1.83515251e-01  2.32985005e-01
  -2.27977484e-02 -1.05110571e-01 -5.41891977e-02  5.64740561e-02
  -1.79248825e-01 -8.39297399e-02 -9.16078165e-02 -1.17676854e-01
   5.36377132e-02 -4.25286263e-01 -2.62942731e-01  3.35521623e-02
  -3.95971924e-01 -5.07919729e-01 -1.99944407e-01  1.95882380e-01
   7.95396715e-02 -6.89924285e-02  8.36930517e-03 -7.33867049e-01
  -1.15965001e-01  2.41318375e-01  9.41929594e-02  1.12242829e-02
  -5.42149581e-02  1.34867672e-02  4.18107137e-02  2.37641856e-01
   3.77238095e-02 -2.25146875e-01 -5.80452122e-02  1.90375000e-01
  -2.26250172e-01  1.20189950e-01 -2.30960235e-01  9.05698761e-02
   2.56239980e-01  1.87614132e-02 -1.04685478e-01  6.35907874e-02
  -1.72117099e-01  7.05460310e-02  1.06898630e-02 -1.29657350e-02
   3.21796946e-02  5.64301480e-03 -8.03461611e-01  3.82900946e-02
  -1.82780609e-01  1.08106129e-01 -4.69992399e-01 -1.12451740e-01
  -1.25395298e-01  1.63194746e-01  1.35215446e-01 -7.95880891e-03
   1.85818955e-01  2.52417356e-01 -2.47770529e-02  6.77811913e-03
   1.94233190e-02 -2.25262176e-02 -2.21405268e-01  1.69862866e-01]
 [-5.83219588e-01 -3.84205729e-02  1.50249690e-01 -4.97572809e-01
   2.98481882e-02  7.93372169e-02 -7.87165016e-03  1.06014527e-01
   8.22655931e-02 -3.34051810e-02  3.93101536e-02 -6.18334347e-03
  -3.49392653e-01 -8.66863206e-02 -7.98123851e-02 -1.59785271e-01
  -6.34479523e-01  3.75762880e-02 -1.34783432e-01 -1.09644793e-01
   7.77223259e-02  1.34563476e-01 -1.67124718e-02  8.21408704e-02
  -9.04846750e-03  4.11182456e-02  4.90635596e-02 -8.51059239e-03
  -7.44453445e-03 -2.37875022e-02 -3.20896208e-01  1.25303388e-01
  -1.47251055e-01 -1.11839786e-01 -9.33674499e-02  3.24902534e-02
  -5.85528791e-01 -9.51724034e-03  1.80398747e-01 -4.85308096e-03
  -2.59898186e-01  2.34158821e-02  1.04097866e-01 -7.80082569e-02
  -4.38819341e-02 -2.59501129e-01 -8.49815667e-01 -1.30218118e-02
   7.16845468e-02 -4.44000483e-01 -8.35633557e-03  1.58659741e-02
   2.02769056e-01  6.09267429e-02 -4.59847420e-01 -6.44445494e-02
  -2.92747933e-02 -1.16625112e-02 -6.48272857e-02  1.94273945e-02
  -1.93160567e-02 -7.03712925e-04 -2.27677122e-01  1.59986541e-01
  -2.26616114e-02 -2.02414975e-01  5.53467274e-02  6.63173348e-02
  -1.70839742e-01 -6.41922951e-02 -2.74652597e-02 -2.35306937e-02
   4.37653437e-02 -3.53152215e-01 -3.79064202e-01  7.89266378e-02
  -4.33872819e-01 -2.43873894e-01 -1.17713936e-01  2.15848595e-01
   7.54193813e-02 -4.58506942e-02  1.42463972e-03 -3.33812147e-01
  -1.94322504e-02  1.56061694e-01  3.88800688e-02  3.37337181e-02
   2.76095197e-02 -5.09347767e-02 -5.65463118e-03  8.98038968e-02
   1.30861416e-01 -3.54740500e-01 -1.84623394e-04  1.80292428e-01
  -2.54666001e-01  2.41023198e-01 -1.08533025e-01 -1.79987052e-03
   1.19517453e-01  3.10739465e-02 -2.78478622e-01  1.79688841e-01
   3.45663796e-03  8.20569322e-02 -4.83011827e-02  2.51407386e-03
   2.41013654e-02 -2.74817981e-02 -1.02923501e+00  2.20950115e-02
  -2.34486654e-01  4.35582176e-02 -1.09797023e-01 -9.20899734e-02
  -1.75284505e-01  8.39978978e-02  3.92020680e-02 -3.75835262e-02
   1.63904175e-01  2.76831001e-01 -6.71245307e-02  9.20550227e-02
  -4.92396578e-02  1.22089060e-02 -6.26682863e-02  1.81201383e-01]
 [-4.45246428e-01  9.00897607e-02  2.02544540e-01 -5.02393484e-01
   7.08072484e-02  1.85240626e-01 -9.76134539e-02 -1.47509470e-03
   7.52435476e-02 -4.54676859e-02  6.81439862e-02 -3.91584486e-02
  -3.38849336e-01 -1.49136275e-01 -8.23863521e-02 -1.47166163e-01
  -5.63320756e-01  5.19552305e-02 -1.57512963e-01 -2.27305256e-02
   3.28758098e-02  3.14004272e-02  3.03089060e-02  9.61975157e-02
   8.61500800e-02 -5.23822233e-02  1.72308311e-02  5.84872216e-02
   6.23198226e-02  6.53542131e-02 -4.67038453e-01  1.62341192e-01
  -1.36770204e-01  1.01846363e-02 -2.60962080e-02  2.93501187e-02
  -4.29044902e-01  6.14348575e-02  1.28554240e-01  9.70909372e-02
  -3.06320459e-01 -1.93601043e-03  8.26770812e-02 -3.36957350e-02
  -2.92498223e-03 -2.84765333e-01 -6.75692558e-01  2.27263253e-02
  -3.32970768e-02 -4.72855598e-01 -8.05545039e-03 -1.17910616e-02
   2.82085747e-01 -7.11141154e-03 -5.91272712e-01 -2.07651611e-02
  -8.40690210e-02 -2.76791193e-02  2.94412468e-02  3.96643505e-02
  -5.64393401e-02  5.48576936e-02 -1.42086253e-01  1.94263384e-01
   2.91700102e-02 -2.72589445e-01  1.30275011e-01  6.89133257e-03
  -1.60992086e-01  5.09567838e-03  2.79510468e-02 -4.49526012e-02
  -6.35112301e-02 -3.40463102e-01 -3.55413496e-01  2.73053758e-02
  -3.39519143e-01  4.61546471e-03 -1.46996051e-01  1.66504100e-01
   1.27334237e-01  2.58930381e-02 -4.41697845e-03 -4.94196601e-02
  -4.93034758e-02  1.47969931e-01  1.01772584e-01  1.34254517e-02
   4.68373783e-02 -8.03291984e-03 -6.93523139e-02  5.83089143e-02
   1.55395288e-02 -2.84393072e-01 -5.28647862e-02  1.56271860e-01
  -2.88247317e-01  1.03331201e-01 -1.26078784e-01  6.26619831e-02
   1.93566248e-01  3.28392126e-02 -2.79406548e-01  1.74720690e-01
  -5.10298787e-03  8.14274922e-02 -1.00096561e-01  8.08616076e-03
  -1.27441939e-02 -6.16445690e-02 -9.68562067e-01 -3.26366313e-02
  -2.00222701e-01  7.64811784e-02  2.53730715e-04 -2.72197843e-01
  -1.25638723e-01  6.91803247e-02  1.06315702e-01  5.09188995e-02
   1.56218559e-01  3.45501512e-01 -5.34027293e-02  7.46032000e-02
  -1.53940357e-02 -2.90875807e-02  8.47690273e-03  1.40337780e-01]
 [-3.61957848e-01  1.41695759e-03  6.21100664e-02 -3.69711936e-01
   7.63329938e-02  3.06844041e-02 -1.98979527e-02 -4.19882461e-02
   1.03711665e-01 -4.72701564e-02 -8.03350881e-02 -1.71061307e-02
  -3.01205516e-01 -1.50285140e-01 -8.89619254e-03 -1.51199564e-01
  -4.98575658e-01  2.72836839e-03 -1.59954756e-01  8.37918222e-02
  -5.76425344e-02 -8.13027918e-02 -3.18441205e-02 -1.71766412e-02
   1.75074130e-01  3.88068669e-02  1.03395563e-02  2.66136974e-02
   1.07106036e-02 -3.02922223e-02 -6.43144965e-01  2.06550568e-01
  -2.43468881e-02 -7.16770738e-02 -8.06947127e-02 -2.10479535e-02
  -3.41749579e-01 -4.26745936e-02  1.76140442e-01  5.60260518e-03
  -3.74548525e-01 -5.45182638e-02  2.33243793e-01  4.90671536e-03
  -6.32522777e-02 -3.14341396e-01 -3.98027629e-01  7.00058565e-02
   7.06234351e-02 -3.93284917e-01  2.42883470e-02 -2.93001812e-02
   1.57851741e-01 -8.61020088e-02 -5.83481491e-01 -9.16758925e-02
  -2.15953030e-02  1.65037084e-02  2.20226049e-02 -4.86002676e-02
   7.89689645e-02  4.80962731e-02 -1.35074392e-01  1.99437305e-01
  -5.03764041e-02 -3.76502395e-01  3.19228679e-01  4.77981456e-02
  -1.05581880e-01 -9.65221301e-02  3.24667692e-02 -9.33606476e-02
   5.54757472e-03 -4.23559844e-01 -4.56484139e-01 -1.82572100e-02
  -2.46661514e-01 -7.65841966e-03 -1.16158128e-01  1.49014682e-01
   4.37543280e-02 -7.15876697e-04  4.09065336e-02  1.48456901e-01
  -3.25685181e-02  1.56817243e-01  4.59226221e-03  5.61205857e-02
  -9.03194398e-02  2.29759067e-02  8.35862458e-02 -3.13609801e-02
   2.14465298e-02 -2.05057591e-01 -4.98759896e-02  6.09845370e-02
  -2.70544887e-01  1.78899273e-01 -8.60374346e-02  1.66095614e-01
   8.94517973e-02  1.47717856e-02 -5.32801986e-01  1.04384966e-01
  -6.60011694e-02  1.38024166e-01 -6.19132929e-02 -2.15629935e-02
  -6.47180080e-02  1.35354453e-03 -9.89531338e-01 -3.88233364e-02
  -1.84966981e-01  9.01403651e-02  2.29470134e-01 -2.41724774e-01
  -9.93593410e-02  4.86456156e-02 -3.62156220e-02  6.04026616e-02
   1.32482991e-01  1.58734873e-01 -5.47232199e-03  5.86676821e-02
   1.41644310e-02 -1.69819742e-02 -3.62621658e-02  1.90483585e-01]
 [-2.80244648e-01 -9.12344754e-02  2.63710860e-02 -2.96921462e-01
   5.67954853e-02  3.56222317e-02  4.48722690e-02  2.47224513e-02
   2.00742498e-01 -3.85483168e-02  4.70185131e-02 -1.31418407e-01
  -4.46844548e-01 -3.23648691e-01 -7.21110776e-02 -1.17256381e-01
  -2.91134715e-01 -7.59367272e-02 -1.52532861e-01  7.22880885e-02
   1.33566171e-01 -2.42823780e-01  1.82551832e-03 -1.35010323e-02
   2.20881030e-01 -3.25969718e-02 -7.48359859e-02 -7.49266893e-02
   1.10573508e-01 -1.94973908e-02 -6.36721790e-01  2.04094738e-01
   1.13224901e-01  6.37574047e-02  2.28058379e-02 -2.88753547e-02
  -3.70166004e-01 -3.45397517e-02  4.30901051e-02  1.64011657e-01
  -5.15458405e-01  4.33537848e-02  4.89562117e-02 -2.11753529e-02
  -4.71820459e-02 -3.18822473e-01 -2.54885435e-01  2.27997229e-02
   7.38201290e-02 -3.15983564e-01 -1.52113900e-01  1.00163020e-01
   1.43756568e-01 -4.83139306e-02 -4.81077999e-01  1.78378131e-02
  -6.20253803e-03 -6.23740489e-03 -8.30830261e-02  7.83575978e-03
   5.93211688e-02  8.50360375e-03 -1.39579609e-01  2.21151739e-01
   9.84942019e-02 -2.58630902e-01  2.77892262e-01  7.55198225e-02
  -5.24438322e-02 -3.40045542e-02  1.91922009e-01 -2.92652398e-02
  -5.26620634e-02 -4.37222779e-01 -6.26788616e-01  9.77809876e-02
  -1.83885396e-01  3.82572487e-02 -1.74447045e-01  1.31913066e-01
   2.73684468e-02  4.11592387e-02 -6.06748238e-02  2.39170656e-01
   1.33002130e-02  2.81567629e-02  8.86184424e-02 -3.45641859e-02
  -1.05723955e-01  3.42342108e-02  2.84712967e-02  5.18084839e-02
   9.62267220e-02 -2.46250331e-01  6.88162670e-02  8.25757980e-02
  -2.46300489e-01  1.90224707e-01 -1.18091591e-01  1.34452716e-01
   1.28216028e-01  4.96184118e-02 -7.61994958e-01  7.57490322e-02
   4.14045528e-02  1.63475096e-01  5.17084561e-02  5.62838726e-02
  -5.03873304e-02  2.13656574e-03 -8.60924661e-01  7.48801827e-02
  -1.97910875e-01  1.18886381e-01  1.91469356e-01 -3.24214011e-01
  -1.77711949e-01  2.32320260e-02 -8.19539279e-02  4.14401218e-02
   1.70003697e-02  1.31293103e-01 -4.50713560e-02  6.30190894e-02
   8.38778764e-02 -4.54833396e-02  1.42003354e-02  1.19264655e-01]
 [-2.08124951e-01 -1.03086017e-01  1.29671678e-01 -4.43285018e-01
   1.31921947e-01 -6.51566731e-03 -2.42182147e-02 -2.59817913e-02
   1.15370721e-01 -1.47386923e-01  2.25404501e-02 -1.71393141e-01
  -4.49934900e-01 -3.16203535e-01 -5.87618304e-03 -1.86114430e-01
  -2.80813038e-01 -5.29427826e-02 -1.35121301e-01 -1.82581280e-04
  -5.95174991e-02 -4.33309913e-01 -1.67376641e-02 -1.41354837e-03
   2.39095926e-01  5.06862663e-02  5.52210063e-02  7.00125471e-03
   3.90164996e-03 -1.19105289e-02 -8.60956490e-01  1.46320000e-01
   4.08302806e-02  1.11755412e-02  5.42867035e-02 -3.61326933e-02
  -2.75901318e-01 -2.99979839e-02  1.14242539e-01  1.07116945e-01
  -4.00875300e-01  6.81160763e-02 -6.39144555e-02 -5.15697077e-02
   2.39802524e-02 -2.78564006e-01 -2.35467225e-01  3.23449299e-02
   4.90540937e-02 -2.89273769e-01 -6.53052181e-02  1.72676146e-02
   1.74154475e-01  2.70743612e-02 -5.89179337e-01 -9.01514292e-02
  -2.87239719e-03 -2.40678806e-02  4.53068055e-02  2.40084734e-02
   6.01468608e-02  8.80516693e-02 -9.90907010e-03  2.44077399e-01
   7.23830834e-02 -1.73630387e-01  3.50361198e-01 -6.09674603e-02
  -3.80782485e-02  3.76873591e-04  1.51194915e-01  2.60473397e-02
  -6.02572374e-02 -5.49291849e-01 -5.70172966e-01 -3.37362736e-02
  -6.86123297e-02  5.60491495e-02 -6.96873739e-02 -2.67842482e-03
   3.62441503e-02 -1.25626652e-02  1.03123290e-02  2.40472630e-01
  -1.21081108e-02  4.96446230e-02  1.22463681e-01  6.34112209e-02
  -1.03601053e-01  2.26570778e-02  8.58555958e-02 -3.75395864e-02
   4.04137149e-02 -2.32998878e-01 -4.82784249e-02  1.14604667e-01
  -9.72944349e-02  1.06776103e-01 -2.71440983e-01  8.71386379e-02
   4.11570445e-02 -3.15572470e-02 -7.71631837e-01 -2.76661497e-02
  -2.64401250e-02  1.43269435e-01  3.63922417e-02 -7.66969547e-02
  -2.83527784e-02 -4.54532728e-02 -6.58830523e-01 -5.27049191e-02
  -2.07878247e-01  1.14784557e-02  1.49879217e-01 -3.56710881e-01
  -1.34583876e-01  1.72960654e-01  4.20345478e-02 -8.26541632e-02
   3.37024964e-02 -3.29785571e-02 -2.90214811e-02  5.12909330e-02
   8.49864110e-02  2.18028817e-02 -4.86660041e-02  2.86494717e-02]
 [-2.20638990e-01  1.00739310e-02  9.53065082e-02 -4.95664120e-01
   5.65742515e-02 -7.14096129e-02 -7.54178911e-02 -4.28519137e-02
   2.56101396e-02 -1.49370775e-01  3.84114273e-02 -2.01413512e-01
  -4.56641763e-01 -2.30532274e-01 -8.00650790e-02 -1.87667385e-01
  -1.05713077e-01 -2.10707504e-02 -9.78520215e-02 -5.31611741e-02
   4.56784293e-03 -5.02132833e-01 -8.43579997e-04 -3.98811959e-02
   9.06790346e-02  8.28075334e-02 -2.85576866e-03  1.77312493e-02
   3.45704854e-02  2.94991545e-02 -9.37028885e-01 -3.96839418e-02
  -5.88946557e-03  3.95806730e-02 -5.16096838e-02 -9.77272317e-02
  -2.29440406e-01 -6.59930706e-02 -7.94043299e-03  1.55222654e-01
  -3.12322080e-01 -3.02671771e-02  1.01932123e-01 -6.82089850e-02
  -5.30873090e-02 -1.98997661e-01 -1.47787407e-01  8.73740762e-02
  -1.18553359e-02 -2.12017864e-01 -5.23965918e-02 -1.73170032e-04
   1.64812863e-01 -8.10967479e-03 -5.99666357e-01 -1.09730013e-01
   3.13117057e-02 -7.24017201e-03  8.96697044e-02  5.12544718e-03
  -1.25426007e-02  8.63990979e-04  1.67389140e-02  2.68189251e-01
   1.78494100e-02 -8.55855942e-02  2.05006972e-01 -4.82331030e-02
  -1.51003506e-02 -1.05409682e-01  2.17439085e-01  1.84549969e-02
  -4.34818454e-02 -5.94955444e-01 -6.52019918e-01 -4.89155427e-02
  -4.29954939e-02  4.17626537e-02 -1.05053239e-01 -3.03949676e-02
   2.62635779e-02 -3.62286828e-02  1.55313136e-02  2.35932231e-01
  -1.36583149e-01  1.18665490e-02  1.01702414e-01 -4.45862487e-02
  -1.24127902e-01 -8.22429359e-02 -1.47302579e-02 -1.20697236e-02
   9.05605331e-02 -1.93903819e-01  2.32079066e-02  1.10268354e-01
  -4.27040532e-02 -1.01450980e-01 -1.61891282e-01  7.44778216e-02
   7.31443688e-02  5.58841750e-02 -3.06024194e-01  6.11366369e-02
   4.09739278e-02  5.52973188e-02  5.10076024e-02 -4.36351039e-02
   7.94851929e-02 -5.90898432e-02 -3.91062230e-01  2.31457800e-02
  -3.42607945e-01  1.25069231e-01  1.98941648e-01 -3.41760874e-01
  -1.63390875e-01  8.40913951e-02  3.69895473e-02 -7.99771771e-03
  -1.74332798e-01 -4.26770188e-02  4.50709164e-02  1.62340607e-02
   6.14279741e-03  3.43739539e-02  9.06824023e-02  4.40474823e-02]
 [-2.24823177e-01 -7.82806575e-02  7.24913552e-02 -5.87335825e-01
  -1.35862613e-02 -1.02310143e-01 -1.39659224e-02 -6.21163063e-02
   6.05011452e-03 -3.35246213e-02  1.15810744e-01 -1.05975322e-01
  -4.88680363e-01 -2.74844795e-01 -1.70761272e-01 -1.58727944e-01
  -7.32566044e-02  2.43440438e-02 -4.10326868e-02 -8.04909691e-02
  -8.79627243e-02 -4.22982037e-01  3.83480489e-02  5.48214419e-03
   1.98205471e-01 -8.60671233e-03  2.20218245e-02  8.65885168e-02
   9.21074226e-02 -5.68805188e-02 -7.00835347e-01  2.99506485e-02
   1.30810682e-02  9.26963985e-02  7.08191395e-02 -1.94778919e-01
  -2.00672552e-01 -3.24024074e-02 -5.23578785e-02  8.57584402e-02
  -2.62820274e-01 -4.84268405e-02  1.34324227e-02  2.94764712e-02
   1.53391808e-02 -2.38580108e-01 -1.46119505e-01  1.38584569e-01
  -3.63239534e-02 -1.30741239e-01 -3.97084691e-02 -2.63116024e-02
   2.66440630e-01 -3.80739383e-02 -5.88209271e-01  9.88914259e-03
  -3.80505621e-02  3.17461491e-02 -9.94902551e-02  1.95572935e-02
  -9.79241263e-03  8.67850557e-02 -2.98971273e-02  2.64842749e-01
   7.99045786e-02 -7.46730119e-02  2.36846998e-01 -1.50984198e-01
   1.88636575e-02 -4.65171002e-02  1.45569980e-01  1.43593758e-01
  -1.09304428e-01 -7.82338917e-01 -6.46398902e-01 -9.98336300e-02
  -3.03707663e-02  1.19819634e-01  7.07404502e-03 -3.46694179e-02
   7.16223046e-02 -4.03898582e-02  4.63623144e-02  2.04225272e-01
  -3.00665740e-02  2.02230159e-02  1.30015925e-01 -6.45948425e-02
  -8.32297504e-02  4.71467376e-02  1.26532754e-02 -6.17466085e-02
   2.58971918e-02 -8.91750976e-02 -9.47933570e-02  8.92433152e-02
  -2.95974631e-02 -9.45411846e-02 -1.89744994e-01  1.08855799e-01
   8.39421898e-02 -4.91206907e-02  4.47279364e-02  3.93629856e-02
   9.56366137e-02  8.59164670e-02 -3.90660390e-02  2.46722158e-02
   2.32107304e-02 -1.27699822e-02 -3.17171782e-01 -1.62718073e-02
  -2.85491168e-01  8.15611780e-02  1.12115651e-01 -3.08019370e-01
  -1.03471205e-01  2.38145977e-01  2.52278503e-02  1.05983550e-02
  -3.01171660e-01 -1.56973302e-01 -1.29020944e-01  1.19760511e-02
   5.52962460e-02 -7.50044268e-03  1.23504205e-02  1.13099121e-01]
 [-2.60280788e-01  2.59251762e-02  7.82260895e-02 -4.19045359e-01
  -1.08011849e-02 -1.34295583e-01  4.13606875e-02 -1.37475505e-01
  -3.31082568e-02 -7.11752195e-03 -3.61650772e-02 -2.11431310e-02
  -4.31378514e-01 -2.85903364e-01 -9.79599655e-02 -1.33826971e-01
  -2.22358704e-02 -7.83074126e-02 -1.78957418e-01 -4.86250641e-03
  -7.53801176e-03 -6.18176162e-01 -9.89319459e-02 -3.34259197e-02
   1.35378316e-01  9.13184732e-02 -7.12282881e-02  8.63491520e-02
   2.00132415e-01 -3.45988870e-02 -4.69007701e-01  2.91767698e-02
   4.69065644e-02  1.43332193e-02  1.26474932e-01 -1.46897554e-01
  -1.81426197e-01  7.68315122e-02  2.78248843e-02  1.46778509e-01
  -3.64751071e-01  4.32732999e-02 -1.32534998e-02  2.74509285e-02
  -2.58948263e-02 -2.45455116e-01 -1.49931729e-01  1.82703570e-01
   1.58585068e-02 -1.20022692e-01  3.19638737e-02  1.73067264e-02
   1.02565400e-01  9.34360027e-02 -6.09295726e-01 -1.14540838e-01
  -9.76598337e-02 -5.14884964e-02  3.75372986e-03 -1.10678691e-02
   5.61106578e-02  5.52674718e-02  5.13160937e-02  3.15260261e-01
   6.39058277e-02  5.61233237e-02  3.26123178e-01 -1.04492173e-01
   1.17590008e-02 -1.54427364e-01  6.18871897e-02  1.14263613e-02
   5.02243359e-03 -6.15109444e-01 -5.30103922e-01 -2.54623294e-02
   1.46294748e-02 -5.91607541e-02  3.54280397e-02 -2.60944255e-02
   5.03725223e-02 -5.10563329e-02  3.13326716e-02  1.88850001e-01
  -1.57896712e-01 -5.38993254e-02  8.08348134e-02 -4.55613248e-02
  -3.86834182e-02 -2.39707306e-02 -2.67613623e-02 -8.86146054e-02
  -2.87336227e-03 -1.95626572e-01 -5.13694175e-02  1.24727972e-02
   9.10424534e-03 -1.27477333e-01 -1.80682000e-02  1.20551139e-01
   7.20705017e-02 -7.98574556e-03  2.29890168e-01  3.98004614e-02
   3.53798494e-02  1.42768309e-01 -7.47843161e-02  4.78821807e-03
  -2.48533562e-02 -4.43590507e-02 -2.89908439e-01  8.05578977e-02
  -2.24354073e-01  1.02391616e-02  1.99239910e-01 -2.19442189e-01
   3.71410772e-02  2.53222495e-01  8.36868212e-03 -1.04881831e-01
  -4.44840819e-01 -1.03440717e-01 -3.13653499e-02 -4.11886573e-02
  -3.11791413e-02 -2.53184531e-02  7.32120574e-02  2.76985634e-02]
 [-2.18639359e-01 -3.82216983e-02  5.53679578e-02 -4.81036574e-01
  -4.78090532e-02 -3.19394842e-02  3.59806381e-02 -1.01493500e-01
  -1.32183516e-02  2.26984844e-02  8.16545710e-02  4.53069061e-02
  -4.94111449e-01 -1.91393867e-01 -1.02244101e-01  1.04327584e-02
   1.83872692e-02 -1.19812615e-01 -1.09836318e-01  8.30636397e-02
  -4.02762815e-02 -6.28849387e-01 -1.44036144e-01 -2.87973620e-02
   2.11512938e-01  5.00380285e-02 -1.15250744e-01  9.37615484e-02
   2.00277880e-01 -2.48640198e-02 -6.81376979e-02  8.84741396e-02
  -4.10292186e-02  1.12473927e-01 -1.41727803e-02 -1.35148957e-01
  -8.43214467e-02 -8.42727944e-02 -2.30382830e-02  1.84604630e-01
  -4.84290004e-01  1.96317434e-02 -5.22632748e-02 -1.15150079e-01
  -3.36810276e-02 -2.82661885e-01 -6.19641878e-02  6.73156083e-02
  -3.81413251e-02 -1.50069267e-01  2.38840710e-02  8.62926617e-03
   1.52631566e-01  9.01550800e-02 -5.66265821e-01 -4.66875508e-02
  -3.18537988e-02  3.99964042e-02  6.51963204e-02 -3.61269377e-02
   6.73595024e-03  5.90530746e-02 -1.05337948e-02  2.82272220e-01
   7.12151080e-02  1.85307354e-01  2.37079442e-01 -2.28712648e-01
   2.35381294e-02 -9.46795419e-02 -8.28848034e-02 -4.40298915e-02
  -1.26838744e-01 -5.56902587e-01 -6.06367767e-01 -4.12063003e-02
   5.54208159e-02 -2.52242628e-02  1.03639002e-04  4.15872596e-02
   3.78382355e-02 -2.36132722e-02 -1.27411224e-02  1.87689573e-01
  -1.19105406e-01 -9.30761844e-02 -3.08655351e-02  1.19008444e-01
  -2.01871507e-02 -3.93804982e-02  8.26699734e-02 -1.44614220e-01
   9.88529436e-03 -1.39657944e-01  6.24669902e-02  1.13795184e-01
  -4.63012466e-03 -4.28971678e-01 -1.26009703e-01  9.30295289e-02
   7.06260577e-02 -2.96181161e-03  6.37337044e-02 -2.23828349e-02
   3.04484344e-03  1.30755723e-01  5.20531051e-02  1.08658619e-01
   4.12690081e-02 -3.63778472e-02 -1.46994755e-01  2.39308849e-02
  -4.87342626e-02  5.85346483e-02  1.76811680e-01 -3.34728003e-01
   1.33984223e-01  2.94079274e-01  8.05827007e-02  3.41121783e-03
  -6.00011468e-01 -1.46556303e-01  5.23540657e-04  5.66767119e-02
  -5.17232297e-03  6.69515580e-02  7.89536610e-02  5.07381968e-02]
 [-2.58248240e-01 -9.87117514e-02 -6.23941831e-02 -5.46722353e-01
  -8.24954435e-02 -6.02755323e-02 -7.91495517e-02 -1.40031621e-01
  -2.05140710e-01 -1.60783678e-01  3.92184220e-02  9.95255560e-02
  -5.52866101e-01 -1.46251768e-01  5.63255278e-04 -8.92576128e-02
  -3.61687988e-02 -1.93856249e-03 -1.57185234e-02  7.99746215e-02
  -1.04608625e-01 -4.52720374e-01 -1.92660898e-01  2.74641588e-02
   1.81123883e-01  4.19819653e-02 -4.49030772e-02  1.33454069e-01
   1.33262619e-01 -8.23542848e-02  7.31807798e-02  4.32673022e-02
   3.96201611e-02  2.84994841e-02 -4.11644392e-02 -4.16388810e-02
  -2.06666484e-01 -3.61335799e-02 -7.40648806e-02  2.45198056e-01
  -5.39570153e-01  2.66364329e-02 -2.09293072e-03 -3.92880403e-02
   7.88053274e-02 -2.61069387e-01 -1.08837016e-01  7.20783323e-02
  -8.19368809e-02 -8.68930575e-03 -8.05428177e-02  8.24614167e-02
   4.51867431e-02  1.22303940e-01 -4.68020558e-01 -6.51655495e-02
  -7.76911527e-02 -4.97656949e-02  5.62788686e-04 -3.11816633e-02
   3.03428480e-03  1.26909748e-01 -2.77056526e-02  3.47588241e-01
  -2.72039194e-02  1.33992076e-01  1.48011282e-01 -3.11871320e-01
   3.40079479e-02 -1.28238082e-01 -1.90600574e-01 -3.62014398e-02
  -3.48400958e-02 -4.04377818e-01 -5.24496317e-01  3.57998982e-02
   8.70134123e-03 -1.02733314e-01  1.12389252e-02 -1.92339334e-03
   8.43333378e-02 -5.53320581e-03  3.87871228e-02  4.67085838e-02
   4.99695428e-02  4.56375768e-03 -7.83626735e-03  1.23962767e-01
  -2.66346950e-02 -1.50833409e-02  6.01753369e-02 -1.88300252e-01
   6.15841113e-02 -2.41136089e-01  6.28725365e-02  1.38902152e-02
   1.32746488e-01 -6.32146239e-01 -1.13568783e-01  1.24176852e-01
   4.81474064e-02 -9.30334330e-02  6.93065077e-02 -6.61141574e-02
  -3.66681628e-02  8.09658691e-02  8.99287779e-03  4.68976982e-02
   1.75070949e-02 -1.04588613e-01 -5.74289970e-02  4.39278260e-02
  -1.75973624e-02  6.19750544e-02  1.09332435e-01 -3.57405186e-01
   1.40931820e-02  2.32116863e-01  3.69778601e-03 -5.67813441e-02
  -6.79779708e-01  3.71049577e-03  1.78184975e-02  1.55831501e-01
  -8.84917825e-02  5.23239449e-02  1.55664340e-01  7.83178955e-02]
 [-1.80895418e-01 -1.36955073e-02 -1.07818261e-01 -4.48729455e-01
  -1.86807573e-01 -1.34079754e-01 -7.80577809e-02 -1.09427236e-01
  -6.12878054e-02 -2.45690793e-01  2.01405827e-02  2.18357146e-02
  -6.31459117e-01 -2.23284259e-01  2.03859173e-02 -6.78265933e-03
   4.72001955e-02  4.41444339e-04  9.48657393e-02  1.90742947e-02
  -1.15147576e-01 -4.74576026e-01 -3.93873155e-02  1.72110386e-02
   2.12297902e-01  2.72900313e-02 -1.57807484e-01  1.02430239e-01
   7.68535435e-02 -9.72038209e-02  1.60437509e-01  3.53063047e-02
   2.10179746e-01 -4.15305384e-02 -6.56378940e-02 -6.53477833e-02
  -1.58869997e-01 -7.64753670e-02  3.43457349e-02  9.00185034e-02
  -3.92817944e-01 -6.99006096e-02  2.86900047e-02  2.10336428e-02
   8.55911076e-02 -2.10562855e-01 -4.79668081e-02  6.27882406e-02
  -8.00524205e-02  1.05138995e-01 -8.55374113e-02 -1.71070434e-02
   5.28693236e-02  9.72850174e-02 -4.34019029e-01 -5.93657084e-02
  -5.47630563e-02  3.93444039e-02  1.09642260e-01  4.27382886e-02
   7.80551881e-02  1.41004935e-01  6.72594411e-03  2.97436446e-01
  -2.84097139e-02  2.28897452e-01  1.54443622e-01 -3.32320660e-01
   7.82626346e-02 -3.24080549e-02 -3.40265542e-01  1.63049735e-02
  -7.04851821e-02 -1.22674108e-01 -3.78666818e-01 -1.27150612e-02
